
\data\
ngram 1=1220
ngram 2=5209
ngram 3=1126
ngram 4=732

\1-grams:
-2.565885	</s>
-99	<s>	-0.3861808
-3.292883	A	-0.5434777
-3.593913	AABOT	-0.2533301
-3.770005	AALALA	-0.2843019
-3.770005	AALAMIN	-0.3006611
-3.770005	AALAS	-0.3006242
-3.372065	AASAHAN	-0.2489869
-3.468975	ABRA	-0.6019124
-3.770005	ABRIL	-0.2893315
-3.770005	ABS	-0.3009562
-3.770005	ABS-CBN	-0.3009562
-3.593913	ACCOUNT	-0.2991822
-3.770005	ACTUALLY	-0.3009562
-3.593913	ADMINISTRATIVE	-0.4759766
-3.593913	AFTERNOON	-0.47642
-3.593913	AGUSAN	-0.4768262
-2.991853	AGWAT	-1.062453
-2.045729	AH	-0.2070543
-3.770005	AIR	-0.3009193
-3.468975	AKLAN	-0.2996264
-2.924907	AKO	-0.8668341
-3.770005	ALA	-0.3008825
-3.770005	ALABAT	-0.3006611
-3.468975	ALAMIN	-0.3790604
-2.815762	ALAS	-0.5339685
-3.770005	ALINSANGAN	-0.2712695
-3.292883	ALON	-0.5017673
-2.565885	AM	-1.052991
-3.770005	AMA	-0.2893315
-2.748816	AMIHAN	-0.2151822
-3.770005	AN	-0.3005134
-3.770005	ANC	-0.3009562
-2.957091	AND	-0.3620735
-1.620786	ANG	-0.3759703
-3.770005	ANGAT	-0.3009562
-3.372065	ANO	-0.2883074
-3.770005	ANONG	-0.3008825
-3.770005	ANTIQUE	-0.3009193
-3.770005	ANUMANG	-0.29896
-3.770005	ANYOS	-0.2905421
-3.593913	APARRI	-0.4759026
-3.468975	APAYAO	-0.3972757
-3.167945	APEKTADO	-0.4060033
-2.514732	ARAW	-0.3718397
-2.623877	AREA	-0.4224408
-3.770005	AS	-0.3009562
-2.728612	ASAHAN	-0.5710736
-3.770005	ASAHANG	-0.3006611
-3.770005	ASUL	-0.2905421
-1.57549	AT	-0.3068381
-3.292883	ATIN	-0.3460175
-2.264855	ATING	-0.4928023
-2.608637	AURORA	-0.3375444
-3.770005	AURORAT	-0.3002918
-3.770005	AWAY	-0.2991452
-3.770005	AXIS	-0.2987376
-2.088763	AY	-0.4575908
-3.029642	AYON	-0.7396548
-3.593913	B	-0.3002549
-3.468975	BA	-0.2953135
-3.770005	BABA	-0.3004026
-3.770005	BABALA	-0.2843019
-3.593913	BABALIK	-0.2710325
-3.770005	BABAYBAYIN	-0.2843019
-3.292883	BABUYAN	-0.3501866
-3.770005	BACOLOD	-0.2893315
-3.593913	BAGAMAT	-0.2947527
-3.468975	BAGO	-0.3000332
-3.593913	BAGONG	-0.4767154
-2.894943	BAGUIO	-0.3893753
-2.372065	BAGYO	-0.3331876
-2.770005	BAGYONG	-0.4330282
-3.770005	BAHA	-0.2960602
-2.322847	BAHAGI	-0.8563414
-3.593913	BAHAGING	-0.297401
-3.225937	BAHAGYANG	-0.3969432
-3.770005	BAHAY	-0.300144
-3.770005	BAKIT	-0.292878
-3.770005	BALER	-0.2999592
-3.770005	BALITA	-0.3005134
-3.770005	BANG	-0.3009193
-3.593913	BANGKA	-0.2919752
-3.770005	BANGSAMORO	-0.2992563
-2.709307	BANSA	-0.3022338
-3.468975	BANTA	-0.3787136
-3.593913	BARMM	-0.2883834
-3.770005	BASA	-0.298144
-3.468975	BASCO	-0.6016542
-3.372065	BASE	-0.6692095
-3.167945	BATAAN	-0.3330546
-3.029642	BATANES	-0.3260402
-3.468975	BATANGAS	-0.2973638
-3.593913	BATAY	-0.4473608
-3.770005	BAWAL	-0.3007718
-3.770005	BAWAT	-0.3008456
-3.770005	BAY	-0.3004396
-3.593913	BAYBAYIN	-0.4603932
-3.292883	BAYBAYING	-0.7777085
-3.770005	BAYONG	-0.3009193
-3.225937	BENGUET	-0.3280261
-3.372065	BENISON	-0.2582411
-3.372065	BENTE	-0.3674971
-3.770005	BERNADETTE	-0.3007718
-3.770005	BHAGYA	-0.3001071
-3.292883	BICOL	-0.5426275
-3.770005	BIGLAANG	-0.3008087
-3.593913	BIGLANG	-0.2710325
-3.770005	BIKOL	-0.2998853
-3.593913	BIKTIMA	-0.2834195
-3.770005	BILIRAN	-0.3005503
-3.292883	BILIS	-0.3943085
-3.593913	BINABANTAYAN	-0.2828815
-3.770005	BINABANTAYANG	-0.3004765
-3.770005	BINATAYAN	-0.3004765
-3.770005	BINATILYO	-0.3009193
-3.770005	BISITAHIN	-0.2905043
-3.770005	BIYERNES	-0.3008825
-3.372065	BOHOL	-0.3549124
-3.770005	BORACAY	-0.2893315
-3.770005	BOUNDARY	-0.2712695
-3.770005	BREAK	-0.2987376
-3.770005	BUBONG	-0.3009193
-3.770005	BUBUTI	-0.2905421
-3.770005	BUENAVISTA	-0.3002918
-3.468975	BUGSO	-0.3703069
-3.770005	BUGSONG	-0.3009562
-3.770005	BUHAWI	-0.2905043
-3.468975	BUHOS	-0.5853319
-3.770005	BUKA	-0.2987376
-2.389793	BUKAS	-0.3023174
-3.770005	BUKIDNON	-0.3009562
-3.292883	BULACAN	-0.2993304
-3.770005	BULLETIN	-0.2843019
-3.468975	BUMABA	-0.2791358
-3.770005	BUMAGSAK	-0.2712695
-3.593913	BUMILIS	-0.4665956
-3.593913	BUNDOK	-0.2838801
-3.593913	BUNTOT	-0.280607
-2.748816	BUONG	-0.4654985
-3.593913	BUWAN	-0.4603932
-3.468975	CABANATUAN	-0.5903615
-3.770005	CACAUSE	-0.2843019
-2.552521	CAGAYAN	-0.5686663
-3.292883	CALABARZON	-0.338966
-3.770005	CALAPAN	-0.2893315
-3.593913	CALAYAN	-0.2990341
-3.167945	CAMARINES	-0.5209569
-3.770005	CAMIGUIN	-0.2712695
-3.770005	CAMP	-0.3009562
-3.593913	CAPIZ	-0.4654228
-3.116792	CARAGA	-0.3126371
-3.468975	CASIGURAN	-0.6009893
-3.770005	CATANDUANES	-0.3007718
-3.292883	CATBALOGAN	-0.3720509
-3.770005	CATEGORY	-0.3008087
-3.770005	CAUSE	-0.2843019
-3.468975	CAVITE	-0.2890662
-3.770005	CBN	-0.3006242
-2.924907	CEBU	-0.3859194
-2.062434	CELSIUS	-0.6160101
-3.372065	CENTER	-0.2837266
-2.709307	CENTRAL	-0.7972953
-3.116792	CENTRO	-0.9375144
-3.770005	CHANCE	-0.2998113
-3.770005	CI	-0.3008825
-3.770005	CITIES	-0.2990341
-2.690824	CITY	-0.3174549
-3.770005	CLOSE	-0.3009193
-3.167945	COAST	-0.4974799
-3.372065	COLD	-0.6987856
-3.770005	COM	-0.2893315
-3.593913	COMPANY	-0.2995524
-3.770005	COMPOSTELA	-0.3003657
-3.770005	CONDITION	-0.298144
-3.770005	CONVERGENCE	-0.3009562
-3.770005	COOL	-0.3009193
-2.792281	CORDILLERA	-0.3656237
-3.225937	COTABATO	-0.4449054
-3.770005	COUNTRY	-0.2998113
-2.815762	CRUZ	-0.6399351
-3.468975	CYCLONE	-0.3973496
-3.770005	DA	-0.2990341
-3.770005	DAAN	-0.2712695
-3.770005	DAANG	-0.3009193
-3.770005	DADAAN	-0.2843019
-3.292883	DADAANAN	-0.3339956
-3.770005	DADALHIN	-0.2995894
-2.991853	DAGAT	-0.3126326
-3.116792	DAGUPAN	-0.399011
-2.552521	DAHIL	-0.3190947
-3.770005	DAHILAN	-0.3000701
-3.593913	DALA	-0.3003288
-3.372065	DALANG	-0.3652764
-3.116792	DALAWANG	-0.2966193
-3.770005	DAM	-0.300144
-3.770005	DAMA	-0.3009193
-3.116792	DAMANG	-0.6976404
-3.770005	DAMI	-0.2843019
-3.372065	DAPAT	-0.289975
-3.770005	DAPITAN	-0.2893315
-3.770005	DARANAS	-0.2843019
-3.770005	DARATING	-0.298144
-3.770005	DASH	-0.3009562
-3.770005	DATI	-0.2712695
-3.770005	DATING	-0.2843019
-3.029642	DATOS	-1.024665
-2.748816	DAVAO	-0.392614
-3.770005	DAW	-0.3009562
-3.468975	DECEMBER	-0.2997374
-3.770005	DEFINITELY	-0.2998853
-2.062434	DEGREES	-2.004822
-3.167945	DEL	-0.6521418
-3.372065	DELA	-0.6983057
-3.770005	DELIKADO	-0.2712695
-3.770005	DENR	-0.3006611
-3.372065	DEPRESSION	-0.35552
-3.770005	DI	-0.2905421
-3.770005	DIFFERENCE	-0.2843019
-3.770005	DILAW	-0.2893315
-2.690824	DIN	-0.3791575
-3.372065	DINAGAT	-0.6986011
-3.770005	DING	-0.2999223
-3.372065	DIRECTION	-0.2883834
-2.17894	DITO	-0.8121378
-2.049845	DIYAN	-0.9226441
-3.770005	DIYES	-0.292878
-3.770005	DOBLE	-0.3007718
-3.770005	DOBLENG	-0.3007718
-3.593913	DOBOL	-0.4770106
-2.770005	DOON	-0.5038065
-3.593913	DOS	-0.2856794
-3.372065	DOST	-0.3670169
-3.029642	DOT	-0.4241209
-3.593913	DROUGHT	-0.2587292
-3.770005	DRY	-0.3009562
-3.593913	DULONG	-0.2985522
-3.468975	DULOT	-0.3782122
-3.770005	DUMAAN	-0.2971406
-3.770005	DUMAGUETE	-0.2986634
-3.225937	DUMAKO	-0.8413203
-3.770005	DZ	-0.3009193
-3.770005	DZMM	-0.3004765
-3.770005	E	-0.2712695
-3.770005	EACH	-0.3009562
-3.225937	EAST	-0.459626
-3.770005	EASTER	-0.3009562
-3.292883	EASTERLIES	-0.2423685
-2.748816	EASTERN	-0.5343728
-3.292883	ECIJA	-0.3485907
-3.770005	ECMWF	-0.3009193
-3.770005	EEXTEND	-0.298144
-2.690824	EH	-0.3443315
-3.071035	EIGHT	-0.3885462
-3.593913	EIGHTEEN	-0.2932911
-3.468975	EIGHTY	-0.3949427
-3.770005	EL	-0.3009562
-3.468975	ELEVEN	-0.296433
-3.167945	END	-0.6501409
-3.770005	ENERGY	-0.3009193
-3.372065	EPEKTO	-0.274966
-3.770005	ESCOLIAR	-0.3005503
-3.770005	ESTAREJA	-0.2843019
-3.770005	ETO	-0.3001071
-3.770005	EUROPEAN	-0.3008456
-3.593913	EVACUATE	-0.3005872
-3.770005	EVENING	-0.3008825
-3.593913	EXCEPT	-0.4767154
-3.593913	EXTENSION	-0.4603932
-3.770005	EXTREME	-0.2992563
-3.770005	FACEBOOK	-0.3009193
-2.709307	FACTOR	-0.5089917
-3.372065	FAIR	-0.6976034
-3.770005	FAIRWEATHER	-0.2905043
-3.770005	FAR	-0.300144
-3.770005	FEBRUARY	-0.298144
-3.116792	FIFTEEN	-0.4712553
-3.292883	FIFTY	-0.5410708
-2.447785	FIVE	-0.6903819
-3.372065	FLASH	-0.6987856
-3.372065	FLOOD	-0.2556697
-3.770005	FLOODING	-0.2893315
-3.770005	FOLLOW	-0.2905043
-3.029642	FOR	-0.3486279
-2.924907	FORECAST	-0.3175123
-3.770005	FORECASTER	-0.2843019
-3.292883	FORECASTING	-0.5435884
-3.770005	FORTICH	-0.3009562
-2.491251	FORTY	-0.6595272
-2.748816	FOUR	-0.6896516
-3.593913	FOURTEEN	-0.2889904
-3.593913	FROM	-0.2996634
-3.372065	FRONT	-0.3537327
-3.593913	GAANO	-0.4769737
-2.639671	GABI	-0.3014928
-3.770005	GAIN	-0.3004765
-3.167945	GALE	-0.9026842
-3.770005	GALING	-0.2712695
-3.468975	GANAP	-0.5915721
-3.593913	GANITONG	-0.3008824
-3.770005	GANUN	-0.2960602
-3.770005	GANUNG	-0.3008825
-3.770005	GANYAN	-0.2905043
-3.770005	GANYANG	-0.3009562
-3.770005	GAYA	-0.2905421
-3.770005	GAYUNDIN	-0.2712695
-3.292883	GENERAL	-0.3517398
-3.593913	GENERALLY	-0.4769368
-3.770005	GEOHAZARD	-0.3008825
-3.770005	GINAGANAP	-0.2905043
-3.770005	GINAGAWA	-0.2971406
-3.770005	GINOONG	-0.3008456
-3.372065	GITNA	-0.6872715
-3.770005	GIWAN	-0.3002549
-3.770005	GLAIZA	-0.3009562
-2.656061	GMA	-0.9679667
-3.372065	GOOD	-0.4762723
-3.593913	GOV	-0.4767154
-3.770005	GREEN	-0.2905421
-3.468975	GROUP	-0.6008413
-3.770005	GROUPS	-0.2998113
-3.372065	GUARD	-0.6884821
-3.593913	GUMAGAMIT	-0.2758266
-3.770005	GUMAMIT	-0.2843019
-3.468975	GUSTINESS	-0.3851035
-3.292883	HA	-0.2783206
-2.957091	HABAGAT	-0.308724
-2.709307	HABANG	-0.4056255
-3.770005	HAHATAKIN	-0.2987376
-3.372065	HAILSTORM	-0.3642734
-2.815762	HALOS	-0.5797989
-3.468975	HAMOG	-0.2884972
-2.167945	HANGGANG	-0.7052733
-3.029642	HANGIN	-0.2787865
-2.991853	HANGING	-0.4466933
-2.292883	HAPON	-0.3690402
-3.770005	HAPONG	-0.3003288
-3.770005	HAPPY	-0.3006242
-3.770005	HATAKIN	-0.2905043
-3.770005	HAVE	-0.298478
-3.770005	HEADLIGHT	-0.2843019
-3.225937	HEAT	-0.4767892
-3.593913	HEAVY	-0.300698
-3.770005	HIGHLY	-0.3009193
-3.770005	HIHIGUPIN	-0.2843019
-3.770005	HIHINA	-0.2905043
-3.770005	HILAGA	-0.3000701
-3.029642	HILAGANG	-0.4196166
-3.770005	HIMAWARI	-0.3009193
-3.770005	HINAHATAK	-0.3005134
-3.770005	HINATUAN	-0.3008087
-2.579673	HINDI	-0.4877855
-3.770005	HIRIT	-0.3009193
-3.770005	HISTORY	-0.3008456
-3.116792	HO	-0.3650908
-2.709307	HOUR	-0.4101595
-3.292883	HULI	-0.7770066
-3.468975	HULING	-0.3973865
-3.770005	HUMAHARANG	-0.298144
-3.770005	HUMIHINA	-0.2960602
-3.770005	HUMIHINGA	-0.2893315
-2.673095	HUNDRED	-0.492716
-3.292883	HUWEBES	-0.3200063
-2.565885	I	-1.053028
-3.372065	IBA	-0.366055
-3.468975	IBA'T	-0.6018756
-3.593913	IBA'T-IBANG	-0.2988859
-3.770005	IBABANG	-0.29896
-3.372065	IBANG	-0.4739011
-3.468975	IBIG	-0.6019124
-3.593913	IDENTIFIED	-0.2866715
-3.770005	IEXPLAIN	-0.292878
-3.372065	IFUGAO	-0.3557855
-3.593913	IGNACIO	-0.3002549
-3.770005	IINGAT	-0.2843019
-3.770005	IIRAL	-0.2712695
-3.770005	IKALAWA	-0.2972522
-3.770005	IKALAWANG	-0.3006611
-3.770005	IKATLO	-0.2974753
-3.770005	IKOCLOSE	-0.3009193
-3.770005	ILALIM	-0.2905421
-3.770005	ILAN	-0.2998853
-2.728612	ILANG	-0.7031289
-3.770005	ILIGAN	-0.3005872
-2.565885	ILOCOS	-0.7297531
-3.167945	ILOILO	-0.3167199
-3.593913	IMAGE	-0.297401
-3.770005	IMEDIA	-0.2843019
-3.770005	IMPORMASYON	-0.3006242
-3.116792	IN	-0.6982318
-3.770005	INA	-0.2999223
-2.593913	INAASAHAN	-0.3510799
-2.748816	INAASAHANG	-0.422218
-3.468975	INDEX	-0.2702415
-3.593913	INFANTA	-0.2885731
-3.225937	INGAT	-0.5635635
-3.770005	INGATAN	-0.3006242
-2.539556	INIT	-0.784533
-3.468975	INTENSE	-0.2896723
-3.770005	INTENSITY	-0.2843019
-3.770005	INTERTROPICAL	-0.3009562
-3.593913	INYONG	-0.2929156
-3.468975	IS	-0.2651848
-3.167945	ISA	-0.282083
-2.894943	ISABELA	-0.3568797
-2.894943	ISANG	-0.3268503
-3.292883	ISLA	-0.2887249
-3.071035	ISLAND	-0.2964913
-3.292883	ISLANDS	-0.285603
-3.468975	ISOLATED	-0.3939017
-3.593913	ITCZ	-0.2921258
-3.593913	ITINAAS	-0.2896344
-2.502833	ITO	-0.3585884
-3.770005	ITO'Y	-0.3009562
-2.579673	ITONG	-0.3608894
-3.770005	JACKET	-0.2712695
-3.468975	JENNY	-0.367982
-2.770005	JESSICA	-0.2758006
-3.225937	KA	-0.3070979
-3.770005	KAALINSANGAN	-0.2929907
-3.292883	KABABAYAN	-0.2792521
-3.292883	KABABAYANG	-0.777893
-3.770005	KABAYAN	-0.3009193
-3.593913	KABIKULAN	-0.4654228
-3.770005	KABILA	-0.2843019
-3.225937	KABILANG	-0.3639332
-3.770005	KABILISAN	-0.2905043
-3.225937	KABISAYAAN	-0.3239665
-3.770005	KADA	-0.3008087
-3.770005	KAGABI	-0.2953883
-3.593913	KAHAPON	-0.2938913
-3.225937	KAHIT	-0.2912593
-3.593913	KAILAN	-0.2984038
-3.770005	KAILANGAN	-0.2972522
-3.770005	KAKAIBANG	-0.2997744
-3.770005	KAKALIMUTAN	-0.3008087
-3.593913	KAKAUNTI	-0.4721515
-3.468975	KALAKAS	-0.2935538
-3.770005	KALAKASAN	-0.2991452
-3.116792	KALANGITAN	-0.5481943
-3.770005	KALAT-KALAT	-0.2905421
-3.593913	KALAYAAN	-0.3007348
-3.468975	KALINGA	-0.2993673
-3.593913	KALUPAAN	-0.295575
-3.468975	KAMAYNILAAN	-0.2690126
-3.770005	KANG	-0.3003288
-3.593913	KANILANG	-0.2921635
-3.292883	KANINA	-0.3125967
-3.116792	KANINANG	-0.560382
-3.116792	KANLURAN	-0.3630134
-3.770005	KANLURANG	-0.29896
-3.225937	KANYANG	-0.3000332
-3.372065	KAPAG	-0.2633789
-3.770005	KAPAL	-0.2843019
-3.593913	KAPAMILYA	-0.2992933
-2.417822	KAPUSO	-0.309905
-3.116792	KARAGATAN	-0.4061068
-3.770005	KAROON	-0.2843019
-3.468975	KASALUKUYAN	-0.295911
-2.639671	KASAMA	-0.6919138
-3.372065	KASI	-0.2707163
-3.593913	KASING	-0.2997004
-3.468975	KATAMTAMAN	-0.3844193
-3.167945	KATAMTAMANG	-0.6426113
-3.770005	KATAWAN	-0.2843019
-3.292883	KATULAD	-0.2693698
-3.593913	KAUGNAY	-0.283765
-3.770005	KAULAPANG	-0.3009193
-3.372065	KAY	-0.2997374
-2.608637	KAYA	-0.3031415
-3.770005	KAYA'Y	-0.300698
-3.116792	KAYAT	-0.3240878
-3.292883	KAYO	-0.7483908
-3.593913	KESA	-0.2659451
-3.468975	KIDLAT	-0.3871875
-3.593913	KIKILOS	-0.4757547
-2.47997	KILOMETERS	-0.7111289
-3.593913	KILOMETRO	-0.3008824
-3.770005	KILOS	-0.2893315
-3.593913	KIM	-0.2902397
-3.770005	KLASENG	-0.3009562
-3.770005	KLIMA	-0.2974753
-3.770005	KO	-0.3001071
-3.593913	KONG	-0.4759766
-3.770005	KPH	-0.3004026
-3.770005	KRITIKAL	-0.2991822
-3.029642	KULAY	-0.3653529
-3.770005	KULOG	-0.2893315
-3.372065	KUMIKILOS	-0.2880035
-3.468975	KUMPARA	-0.2885352
-2.656061	KUNG	-0.5118754
-3.593913	KUYA	-0.4770106
-3.071035	LA	-0.999631
-3.225937	LABAS	-0.3631748
-2.894943	LAGAY	-0.728554
-3.770005	LAGING	-0.2998483
-3.593913	LAGUNA	-0.3005872
-3.225937	LAHAT	-0.3723848
-3.071035	LAKAS	-0.4282013
-3.225937	LALABAS	-0.5839115
-3.770005	LALAKAS	-0.3008825
-3.770005	LALANDFALL	-0.2905043
-3.372065	LALAWIGAN	-0.3426562
-2.673095	LALO	-0.717822
-3.116792	LALONG	-0.9533196
-2.815762	LAMANG	-0.3279906
-3.770005	LANAO	-0.3007349
-3.770005	LAND	-0.3009193
-3.468975	LANDFALL	-0.2471121
-3.770005	LANDMASS	-0.2843019
-3.029642	LANDSLIDE	-0.2947506
-3.071035	LANG	-0.2534124
-3.770005	LAOAG	-0.300144
-3.593913	LAPU	-0.3000332
-3.593913	LAST	-0.3008824
-3.770005	LATE	-0.3009562
-2.748816	LATEST	-0.8525098
-3.770005	LAYAG	-0.2960602
-3.593913	LAYO	-0.2898615
-3.029642	LAYONG	-0.4731202
-3.770005	LEBEL	-0.2843019
-3.770005	LEGAZPI	-0.2974753
-3.770005	LESS	-0.292878
-2.957091	LEYTE	-0.2994303
-3.770005	LIGHT	-0.3008825
-3.770005	LIKE	-0.2905043
-3.770005	LINDOL	-0.3001071
-2.866915	LINGGO	-0.2975226
-3.770005	LINYA	-0.3006611
-3.593913	LIWAYWAY	-0.2834195
-3.770005	LOCALIZE	-0.3005134
-3.770005	LOCALIZED	-0.300698
-3.071035	LOOB	-0.4834242
-3.372065	LORIDIN	-0.6987856
-3.029642	LOW	-1.040987
-3.071035	LPA	-0.3377986
-3.770005	LUBHA	-0.3001071
-2.579673	LUGAR	-0.4713539
-3.372065	LULUBOG	-0.2843402
-3.225937	LUMAKAS	-0.3259628
-3.770005	LUMALABAS	-0.2996634
-3.770005	LUMALAKAS	-0.2893315
-3.770005	LUMALAPIT	-0.2905421
-3.225937	LUPA	-0.3106831
-2.157221	LUZON	-0.2738298
-3.770005	MA	-0.3009562
-3.593913	MAAARI	-0.4689693
-3.225937	MAALINSANGAN	-0.3031195
-3.770005	MAALINSANGANG	-0.2998483
-3.770005	MAALIWALAS	-0.2905421
-3.292883	MAALON	-0.7751911
-3.770005	MAAPEKTUHAN	-0.2843019
-3.770005	MAARAW	-0.3004026
-3.468975	MAARI	-0.289483
-3.372065	MAAYOS	-0.3526262
-3.029642	MABABA	-0.3591694
-3.468975	MABABANG	-0.2980698
-3.593913	MABAWASAN	-0.2854119
-3.770005	MABILIS	-0.2905421
-3.770005	MADALAS	-0.3008825
-3.372065	MADALING	-0.6976404
-3.593913	MADRE	-0.2958363
-2.894943	MAG	-0.4026647
-3.770005	MAGAGANAP	-0.3005872
-3.593913	MAGANDA	-0.2866334
-3.071035	MAGANDANG	-0.5072492
-3.593913	MAGBABAGO	-0.2791358
-3.770005	MAGBAGO	-0.2905043
-3.770005	MAGDADALA	-0.3009562
-3.770005	MAGDAMAG	-0.2905421
-3.468975	MAGDULOT	-0.5853319
-3.029642	MAGHAPON	-0.2956684
-3.292883	MAGHAPONG	-0.4189425
-2.458251	MAGIGING	-0.5328239
-2.593913	MAGING	-0.4955849
-3.593913	MAGKAKAROON	-0.2920882
-3.770005	MAGLALANDFALL	-0.2996634
-3.770005	MAGPAPATULOY	-0.2929907
-3.770005	MAGPAPAULAN	-0.2712695
-2.991853	MAGPLANO	-1.07848
-3.593913	MAGTUTULOY	-0.4770106
-3.770005	MAGUINDANAO	-0.300181
-3.770005	MAHAL	-0.2905421
-2.991853	MAHIHINANG	-0.5582984
-3.071035	MAHINA	-0.7323985
-3.372065	MAHINANG	-0.4682924
-3.372065	MAINIT	-0.2478213
-3.770005	MAINLAND	-0.2998113
-3.770005	MAINTAIN	-0.3007349
-3.770005	MAKAKAAPEKTO	-0.292878
-3.770005	MAKAKAASA	-0.298144
-3.770005	MAKAKAIPON	-0.2843019
-3.770005	MAKAKAPAL	-0.2905421
-3.071035	MAKAKARANAS	-0.4078145
-3.770005	MAKAPAL	-0.2905421
-3.468975	MAKARANAS	-0.377517
-3.593913	MAKARARANAS	-0.2866715
-3.225937	MAKIKITA	-0.4658393
-3.770005	MAKITA	-0.3004765
-3.770005	MAKULIMLIM	-0.2905043
-3.770005	MALA	-0.3009562
-2.894943	MALAKAS	-0.6343329
-3.770005	MALAKI	-0.292878
-2.894943	MALAKING	-0.6506605
-2.957091	MALALAKAS	-0.5823322
-3.468975	MALALAKI	-0.2934788
-3.372065	MALALAKING	-0.3643106
-3.770005	MALALAMIG	-0.2905421
-3.225937	MALAMIG	-0.3857108
-3.029642	MALAPIT	-0.4938503
-3.593913	MALAWAK	-0.4665956
-3.372065	MALAYO	-0.3460826
-2.957091	MALIBAN	-0.4846424
-3.770005	MALIIT	-0.2905421
-3.225937	MALILIIT	-0.5913832
-3.770005	MAMASYAL	-0.2971406
-3.593913	MAMAYA	-0.2680986
-3.372065	MAMAYANG	-0.6979732
-3.593913	MANATILING	-0.2997743
-2.991853	MANG	-0.8118057
-3.225937	MANGINGISDA	-0.3933058
-2.437566	MANILA	-0.3029654
-3.770005	MANOLO	-0.3009562
-3.468975	MAP	-0.2833427
-3.593913	MAPAMINSALA	-0.3000332
-3.770005	MAPANGANIB	-0.3002549
-3.770005	MAPANSING	-0.3007718
-3.468975	MAPAPANSIN	-0.2924645
-3.770005	MARA	-0.3004396
-3.770005	MARAMDAMAN	-0.3009193
-3.770005	MARAMI	-0.2960602
-3.029642	MARAMING	-0.4121816
-3.468975	MARARAMDAMAN	-0.26209
-3.770005	MARARAMDAMANG	-0.2997744
-3.468975	MARARANASAN	-0.2617268
-3.770005	MARCH	-0.292878
-3.468975	MARILYN	-0.2692904
-3.593913	MARINDUQUE	-0.2892178
-3.593913	MARTES	-0.2991452
-2.866915	MAS	-0.319656
-3.770005	MASASABAYAN	-0.3004765
-3.770005	MASAYA	-0.2929907
-3.770005	MASBATE	-0.2712695
-3.593913	MASS	-0.2785536
-3.770005	MASUNGIT	-0.2905421
-3.770005	MASYADONG	-0.3008456
-3.292883	MATA	-0.3965241
-3.292883	MATAAS	-0.3360672
-3.770005	MATAGAL	-0.2905421
-3.770005	MATANAO	-0.3002549
-3.770005	MATAPOS	-0.3009562
-3.770005	MATINDING	-0.2997744
-3.593913	MATITINDING	-0.2994414
-2.792281	MAULAN	-0.4602142
-3.372065	MAULANG	-0.4758656
-2.815762	MAULAP	-0.3764845
-3.770005	MAWAWALA	-0.2996634
-3.292883	MAXIMUM	-0.4174032
-1.889191	MAY	-0.4127781
-3.468975	MAYO	-0.2682975
-3.770005	MAYROON	-0.292878
-3.770005	MEDIUM	-0.300698
-3.593913	MEDYO	-0.3007348
-3.029642	MERON	-0.5306234
-3.770005	MERONG	-0.3009562
-3.593913	METEOROLOGIST	-0.2887628
-3.167945	METRAWEATHER	-0.32944
-2.338641	METRO	-0.9872085
-1.736581	MGA	-0.4902785
-3.770005	MID	-0.3009562
-3.468975	MIMAROPA	-0.2986264
-2.408277	MINDANAO	-0.3072882
-3.029642	MINDORO	-0.3705729
-3.770005	MINIMUM	-0.3006242
-3.167945	MINSAN	-0.3673748
-3.770005	MINSANG	-0.3006611
-3.593913	MISAMIS	-0.3004395
-3.770005	MIYERKULES	-0.2843019
-3.116792	MO	-0.4024406
-3.770005	MODERATE	-0.2999223
-3.372065	MOISTURE	-0.3558235
-3.770005	MOMENTUM	-0.3004396
-2.924907	MONSOON	-0.347016
-3.167945	MORNING	-0.3302625
-3.770005	MOTORISTA	-0.2998113
-3.292883	MOUNTAIN	-0.4253783
-2.338641	MULA	-0.7421117
-3.593913	MULI	-0.2959856
-3.468975	MUNA	-0.3568975
-1.622328	NA	-0.3146639
-3.770005	NAAPEKTUHAN	-0.2843019
-3.593913	NABALOT	-0.2890283
-3.225937	NABANGGIT	-0.3308378
-3.770005	NABUBUO	-0.2905421
-3.593913	NABUO	-0.271151
-3.770005	NAFORECAST	-0.292878
-2.957091	NAG	-0.3972018
-3.770005	NAGBABAGANG	-0.3009562
-3.593913	NAGBIBIGAY	-0.2986634
-3.770005	NAGI	-0.2995154
-3.770005	NAGIGING	-0.3004396
-3.372065	NAGING	-0.2995894
-3.770005	NAGKA	-0.3006242
-3.770005	NAGKAKAMALI	-0.2905043
-3.770005	NAGKAKAROON	-0.2843019
-3.593913	NAGKAROON	-0.4603932
-3.593913	NAGLALARO	-0.2899372
-3.593913	NAGPAPALAKAS	-0.4603932
-3.770005	NAGPAPATULOY	-0.3001071
-3.770005	NAGPAPAULAN	-0.2712695
-3.770005	NAGPAULAN	-0.2971406
-3.770005	NAGTAAS	-0.292878
-3.770005	NAGULAT	-0.2905043
-3.770005	NAIA	-0.3007349
-3.468975	NAITALA	-0.2529595
-3.770005	NAKA	-0.3009562
-3.029642	NAKAKAAPEKTO	-0.430449
-3.770005	NAKAKAKUHA	-0.3004765
-3.770005	NAKAKAPAG	-0.3009562
-3.770005	NAKAKATAKOT	-0.300144
-3.770005	NAKAKATULONG	-0.3003288
-3.770005	NAKAMOTOR	-0.3008456
-3.770005	NAKAPALOOB	-0.3008456
-3.770005	NAKAR	-0.2712695
-3.770005	NAKARAANG	-0.2997004
-3.770005	NAKARANAS	-0.2843019
-3.770005	NAKARARANAS	-0.3002549
-3.029642	NAKATAAS	-0.6225399
-3.770005	NAKATIRA	-0.2971406
-3.770005	NAKATUTOK	-0.3009562
-3.225937	NAKIKITA	-0.3853313
-3.593913	NAKIKITANG	-0.3007348
-3.372065	NALALABING	-0.6969
-3.770005	NALAMANG	-0.2712695
-3.770005	NAMAMATAAN	-0.2712695
-3.770005	NAMAMAYANI	-0.2998853
-2.062434	NAMAN	-0.4919446
-3.372065	NAMANG	-0.2972894
-2.957091	NAMATAAN	-0.4292979
-3.770005	NAMIN	-0.2971034
-3.770005	NANANATILI	-0.3001071
-3.593913	NANATILI	-0.2821504
-3.372065	NANDITO	-0.2590949
-3.770005	NANDOON	-0.2905043
-3.770005	NANDUN	-0.2960602
-3.593913	NANDYAN	-0.2854501
-3.770005	NANGYARI	-0.3008456
-3.593913	NANGYAYARI	-0.2933286
-3.770005	NAPAKA	-0.3009562
-3.292883	NAPAKAALON	-0.3977064
-3.593913	NAPAKALAKAS	-0.2902019
-3.770005	NAPANSIN	-0.300698
-3.770005	NAPAPADALAS	-0.2905421
-3.593913	NARAMDAMAN	-0.2671029
-3.770005	NARANASAN	-0.2991822
-3.770005	NARARAMDAMAN	-0.2843019
-3.292883	NARITO	-0.4007263
-2.514732	NASA	-0.434645
-3.770005	NASABI	-0.3009193
-3.770005	NATATANAW	-0.2905421
-2.894943	NATHANIEL	-0.9019822
-2.372065	NATIN	-0.343639
-2.894943	NATING	-0.3193322
-2.894943	NATITIRANG	-1.174021
-3.770005	NATURANG	-0.3008456
-3.770005	NAUNA	-0.2905421
-3.770005	NAUUNA	-0.2905043
-3.770005	NAUWI	-0.2712695
-2.957091	NEGROS	-0.5179201
-3.770005	NETONG	-0.3008087
-2.894943	NEWS	-0.7479474
-1.422675	NG	-0.4942467
-2.840586	NGA	-0.3002566
-3.770005	NGAY	-0.3008087
-2.748816	NGAYON	-0.3134483
-2.502833	NGAYONG	-0.5132536
-3.372065	NGUNIT	-0.332812
-3.593913	NI	-0.2961348
-3.593913	NILA	-0.2895966
-3.593913	NILALAMAN	-0.4603932
-3.593913	NINA	-0.2881935
-2.770005	NINE	-0.7493687
-3.770005	NINETEEN	-0.300698
-3.468975	NINETY	-0.3949427
-3.770005	NINYONG	-0.2929907
-2.924907	NITO	-0.3268937
-3.372065	NITONG	-0.3585077
-3.167945	NIYA	-0.2732003
-3.770005	NIYAN	-0.3008087
-3.372065	NIYO	-0.2890662
-3.770005	NIYONG	-0.2953883
-3.770005	NIÑO	-0.2893315
-3.071035	NO	-0.3526698
-3.770005	NOBYEMBRE	-0.3006242
-3.770005	NONE	-0.3003657
-2.894943	NORTE	-0.3312267
-3.292883	NORTH	-0.5434777
-3.116792	NORTHEAST	-0.681705
-2.389793	NORTHERN	-0.669699
-3.593913	NORTHWEST	-0.271072
-3.770005	NORZAGARAY	-0.3008087
-3.292883	NUEBE	-0.4060866
-2.894943	NUEVA	-0.7527003
-3.029642	NUMBER	-0.6331187
-3.071035	NUNG	-0.3866958
-3.372065	NYAN	-0.3364752
-3.770005	NYO	-0.3006242
-3.468975	NYONG	-0.3973496
-2.278643	O	-0.3035638
-3.770005	OCCASIONALLY	-0.3009193
-3.225937	OCCIDENTAL	-0.255547
-3.770005	OCEAN	-0.2953883
-2.552521	OF	-0.6189876
-3.372065	OK	-0.2669833
-2.363464	ONE	-0.607931
-3.770005	ONSE	-0.2843019
-3.770005	ONYOK	-0.3009193
-3.770005	OPERATION	-0.2905421
-3.593913	OPO	-0.2708349
-3.770005	OR	-0.2960602
-3.292883	ORANGE	-0.4029095
-3.372065	ORAS	-0.2749268
-3.116792	ORIENTAL	-0.3972476
-3.770005	ORIENTATION	-0.3009562
-3.770005	OUTING	-0.2843019
-2.17894	PA	-0.603898
-3.770005	PAALALA	-0.298144
-3.770005	PAALIS	-0.2843019
-3.593913	PABABA	-0.2834963
-3.593913	PABLO	-0.2895587
-3.770005	PACIFIC	-0.3009562
-2.866915	PAG	-0.3358757
-3.770005	PAGALON	-0.3002918
-2.539556	PAGASA	-0.3414786
-3.292883	PAGBAHA	-0.3357609
-3.770005	PAGBATI	-0.2712695
-3.468975	PAGBUGSO	-0.2797946
-3.770005	PAGBUGSONG	-0.3008825
-2.728612	PAGDATING	-0.6507924
-3.468975	PAGGUHO	-0.5853319
-3.468975	PAGITAN	-0.3805215
-3.593913	PAGKABUHAY	-0.2810706
-3.593913	PAGKAKAIBA	-0.2997743
-3.770005	PAGKAKATAONG	-0.3001071
-3.770005	PAGKATAPOS	-0.2843019
-3.770005	PAGKAWALA	-0.2843019
-2.924907	PAGKIDLAT	-0.862832
-3.770005	PAGKILOS	-0.3005134
-2.924907	PAGKULOG	-0.3614797
-3.770005	PAGLALAYAG	-0.2712695
-3.770005	PAGPAPAULAN	-0.2843019
-3.770005	PAGSAPIT	-0.2843019
-3.593913	PAGSASALUBONG	-0.4603932
-3.770005	PAGTAAS	-0.2843019
-3.593913	PAGTAMA	-0.3003288
-3.770005	PAGTAWID	-0.2712695
-2.47997	PAGULAN	-0.3126098
-3.770005	PAHILAGA	-0.3008087
-3.593913	PAHILAGANG	-0.4767892
-3.770005	PAKANLURAN	-0.2712695
-3.593913	PALALAKASIN	-0.2813022
-3.770005	PALARONG	-0.3009562
-3.029642	PALAWAN	-0.3805675
-3.770005	PALIBOT	-0.3006611
-3.770005	PALISADA	-0.2998483
-3.770005	PAMBANSA	-0.3006242
-3.770005	PAMILYA	-0.3009562
-3.468975	PAMINSAN	-0.3975711
-3.372065	PAMPANGA	-0.3557476
-3.770005	PAN	-0.3008456
-2.565885	PANAHON	-0.3991957
-3.770005	PANANDALIAN	-0.3003657
-3.770005	PANANGGA	-0.3008087
-3.593913	PANAY	-0.2889525
-3.372065	PANDAGAT	-0.2975497
-3.372065	PANG	-0.3002179
-3.770005	PANGANIB	-0.2843019
-2.924907	PANGASINAN	-0.290171
-3.770005	PANGATLONG	-0.2996634
-3.770005	PANGUNAHING	-0.2996634
-3.770005	PANIBAGONG	-0.2991822
-3.770005	PANONOOD	-0.2980698
-3.770005	PANOOD	-0.2893315
-3.770005	PANSAMANTALANG	-0.3009562
-3.770005	PAPAANO	-0.3009562
-3.770005	PAPALABAS	-0.2843019
-3.770005	PAPALAKAS	-0.3002549
-3.770005	PAPALAPIT	-0.2905421
-3.770005	PAPALIT	-0.2712695
-3.372065	PAPALO	-0.6692095
-3.770005	PAPANO	-0.2905421
-3.770005	PAPASOK	-0.2905421
-3.593913	PAPAULAN	-0.2681782
-3.593913	PAPUNTA	-0.4603932
-3.071035	PAR	-0.3336622
-2.792281	PARA	-0.5087489
-3.372065	PARANG	-0.3638269
-3.770005	PART	-0.2998853
-3.770005	PARTE	-0.2905421
-3.770005	PARTENG	-0.300181
-3.770005	PARTIKULAR	-0.2712695
-3.770005	PATAAS	-0.2905043
-3.593913	PATAY	-0.2880415
-3.593913	PATI	-0.4666333
-3.770005	PATROL	-0.3006242
-3.029642	PATULOY	-0.5290993
-3.593913	PATUNGONG	-0.3003657
-3.770005	PAU	-0.2971034
-3.770005	PAULAN	-0.2893315
-3.468975	PENINSULA	-0.2852589
-3.593913	PEPITO	-0.3005503
-2.709307	PER	-1.360879
-3.770005	PERCENT	-0.3009562
-2.363464	PERO	-0.3025187
-3.468975	PH	-0.2777762
-2.748816	PHILIPPINE	-0.7765996
-3.770005	PHILLIPS	-0.2712695
-3.770005	PHYSICS	-0.300144
-3.372065	PILING	-0.6978253
-3.167945	PILIPINAS	-0.3755398
-3.593913	PINAG	-0.2970289
-3.770005	PINAGSANIB	-0.2905421
-3.770005	PINAIGTING	-0.2905421
-3.372065	PINAKA	-0.3673864
-3.468975	PINAKAHULING	-0.3963884
-3.468975	PINAKAMALAMIG	-0.2870144
-3.770005	PINAKAMATAAS	-0.2905421
-3.593913	PINANGGAGALINGAN	-0.3006611
-3.372065	PINAPAYAGAN	-0.4595875
-3.593913	PINAPAYAGANG	-0.3002179
-3.593913	PINAPAYUHANG	-0.4765678
-3.593913	PINK	-0.2785536
-3.593913	PM	-0.4757547
-1.730591	PO	-0.5958987
-2.957091	POINT	-0.4280138
-3.593913	POLILLO	-0.3004395
-2.673095	PONG	-0.2971156
-3.593913	POPULATED	-0.4721515
-3.770005	PORSYENTO	-0.2843019
-3.770005	PORTION	-0.2843019
-2.957091	POSIBLE	-0.2894073
-2.709307	POSIBLENG	-0.3601602
-3.770005	PRE	-0.3009193
-3.029642	PRESSURE	-1.040359
-3.770005	PREVAILING	-0.298144
-3.292883	PRINCESA	-0.4208497
-3.770005	PROBABILITY	-0.3009562
-2.770005	PROBINSYA	-0.8370785
-3.770005	PROBLEMA	-0.3006611
-3.593913	PRONE	-0.2959483
-3.372065	PROVINCE	-0.2995524
-2.709307	PROVINCES	-0.3223767
-3.292883	PUERTO	-0.77793
-3.372065	PULA	-0.3402651
-3.593913	PULO	-0.2986264
-3.167945	PULO-PULONG	-0.5138617
-3.225937	PUMALAOT	-0.4590497
-3.468975	PUMALO	-0.5722995
-3.770005	PUMAPALO	-0.2843019
-3.770005	PUMAPATAK	-0.2712695
-3.468975	PUMASOK	-0.241608
-3.770005	PUNG	-0.3009193
-3.770005	PUNO	-0.300144
-3.770005	PUPUNTA	-0.2843019
-3.593913	PURO	-0.2929156
-3.770005	PUWERSA	-0.3007349
-3.770005	PWEDE	-0.3001071
-3.468975	PWEDENG	-0.3006611
-3.770005	QUARTER	-0.2998113
-3.468975	QUATRO	-0.3810202
-2.770005	QUEZON	-0.3768156
-3.225937	QUIRINO	-0.3953138
-3.593913	RADYO	-0.2904665
-3.468975	RAIN	-0.3680611
-3.372065	RAINFALL	-0.3669061
-3.468975	RAINS	-0.2595414
-3.468975	RAINSHOWERS	-0.2851824
-3.593913	RAMDAM	-0.4721515
-3.116792	RANGE	-0.2573041
-3.770005	RANGES	-0.3004396
-2.593913	READY	-0.5986134
-3.770005	REAL	-0.2712695
-3.770005	RECORD	-0.3008456
-2.579673	REGION	-0.2832659
-2.924907	REHIYON	-1.1294
-3.770005	RESCUE	-0.3005503
-3.468975	RESIDENT	-0.3972757
-3.593913	RESIDENTE	-0.2830353
-2.924907	RESPONSIBILITY	-0.3667511
-3.770005	REST	-0.2998113
-3.770005	RETRIEVAL	-0.3009562
-2.258121	RIN	-0.4700894
-3.116792	RING	-0.4004624
-3.770005	RITO	-0.2905043
-3.292883	RIZAL	-0.297847
-3.593913	ROMBLON	-0.2982925
-3.593913	ROSITA	-0.2853354
-1.17894	SA	-0.5390849
-3.225937	SAAN	-0.2835732
-2.991853	SABADO	-0.3240775
-3.468975	SABIHIN	-0.2922011
-3.593913	SAIS	-0.2840719
-3.770005	SAKAHAN	-0.2999223
-3.372065	SALAMAT	-0.2876614
-3.770005	SAMA	-0.2843019
-2.991853	SAMANTALA	-0.4121055
-2.792281	SAMANTALANG	-0.3886653
-2.866915	SAMAR	-0.3536213
-3.116792	SAMUEL	-0.2722472
-3.593913	SANTO	-0.4741611
-3.593913	SANTOS	-0.2703207
-3.372065	SAPAGKAT	-0.4744951
-3.372065	SASAKYANG	-0.476863
-3.770005	SATELLITE	-0.3009193
-3.468975	SEA	-0.2588511
-3.225937	SEABOARD	-0.4479133
-3.593913	SEABOARDS	-0.4603932
-3.593913	SEASON	-0.2889146
-3.167945	SECTION	-0.4199135
-3.593913	SENDONG	-0.4654228
-2.991853	SERBISYONG	-1.078738
-2.991853	SEVEN	-0.4984984
-3.468975	SEVENTEEN	-0.2984038
-3.593913	SEVENTY	-0.2994044
-3.770005	SHANSHAN	-0.2905421
-3.770005	SHERY	-0.3009193
-3.770005	SHERYL	-0.3009193
-3.593913	SHOWERS	-0.4654228
-2.656061	SI	-0.5708095
-3.468975	SIDE	-0.2815337
-3.593913	SIERRA	-0.4770106
-2.894943	SIGNAL	-0.6156418
-3.770005	SIGNALS	-0.2905043
-2.991853	SIGURADO	-1.078
-3.770005	SIGURADUHIN	-0.3009562
-3.770005	SILA	-0.2712695
-2.894943	SILANGAN	-0.4545673
-3.292883	SILANGANG	-0.5417386
-3.593913	SILIPIN	-0.2890283
-3.167945	SIMULA	-0.2720586
-3.770005	SINABING	-0.3009193
-3.770005	SINAIT	-0.2998483
-3.029642	SINGKO	-0.6198256
-3.770005	SINUSUNDAN	-0.298144
-3.770005	SIQUIJOR	-0.3005503
-3.593913	SISIKAT	-0.4733435
-2.792281	SIX	-0.4667844
-3.292883	SIXTEEN	-0.2914478
-3.372065	SIXTY	-0.4741239
-2.894943	SIYA	-0.3089443
-3.593913	SIYANG	-0.2998483
-2.894943	SO	-0.3102368
-3.292883	SOCSARGEN	-0.3352244
-3.770005	SOUTH	-0.2998113
-2.709307	SOUTHERN	-0.5296055
-3.372065	SOUTHWEST	-0.3455393
-3.770005	SPELL	-0.3006242
-3.770005	STANLEY	-0.3009562
-3.225937	STORM	-0.3411301
-3.770005	STRENGTH	-0.2893315
-3.593913	STRESS	-0.2879655
-3.770005	STROKE	-0.2893315
-3.770005	SUBAYBAY	-0.3009562
-3.593913	SUBIC	-0.3003657
-3.770005	SUGATAN	-0.2972522
-3.770005	SUNDAY	-0.2991452
-3.770005	SUNGIT	-0.2905421
-3.770005	SUNOG	-0.2905043
-3.372065	SUNRISE	-0.4688565
-3.593913	SUNSET	-0.2927276
-3.593913	SUPER	-0.3007717
-2.924907	SUR	-0.3104382
-3.770005	SURGE	-0.2971406
-3.292883	SURIGAO	-0.5429234
-3.468975	SUSTAINED	-0.6018756
-3.225937	SUSUNOD	-0.8346101
-3.167945	SYSTEM	-0.4064013
-3.770005	SYUDAD	-0.292878
-3.593913	TAAS	-0.3005872
-3.292883	TAGA	-0.2971406
-3.770005	TAGAPANOOD	-0.2893315
-3.116792	TAGAYTAY	-0.395207
-3.468975	TAGBILARAN	-0.2701623
-3.292883	TAGLAY	-0.4119532
-3.292883	TAIL	-0.7778561
-3.468975	TAKBO	-0.288687
-3.292883	TAMA	-0.3180561
-3.770005	TAMAAN	-0.2843019
-3.593913	TANGHALI	-0.289975
-3.029642	TANI	-0.2814951
-3.593913	TAO	-0.2965821
-3.593913	TAPOS	-0.2979584
-3.225937	TARLAC	-0.2944159
-3.770005	TATAAS	-0.2905421
-3.225937	TATAMA	-0.3409636
-3.770005	TATAWIDIN	-0.3005134
-3.593913	TATAWIRIN	-0.2733576
-3.770005	TATLO	-0.2905043
-3.372065	TATLONG	-0.3642362
-3.292883	TAYA	-0.5249573
-2.748816	TAYO	-0.4420008
-2.957091	TAYONG	-0.3374902
-3.372065	TED	-0.298144
-2.728612	TEMPERATURA	-0.4662386
-3.029642	TEMPERATURE	-0.4518006
-3.593913	TEMPERATURES	-0.289142
-3.372065	TEN	-0.4718903
-3.770005	TERMS	-0.2998113
-3.770005	THAT	-0.3009562
-2.815762	THE	-0.4923722
-2.264855	THIRTY	-0.7413541
-3.593913	THIS	-0.4770106
-3.225937	THOUSAND	-0.338012
-2.894943	THREE	-0.5676302
-2.924907	THUNDERSTORM	-0.3250639
-3.116792	THUNDERSTORMS	-0.4413963
-3.593913	TIME	-0.4759026
-3.770005	TIMOG	-0.300698
-3.770005	TINAAS	-0.2905421
-3.468975	TINATAWAG	-0.386885
-3.770005	TINATAYA	-0.3001071
-3.468975	TINATAYANG	-0.3963514
-3.770005	TINAWAG	-0.2905421
-3.770005	TININGNAN	-0.300698
-3.770005	TITIGNAN	-0.300698
-3.468975	TITINGNAN	-0.3957588
-2.593913	TO	-0.7589281
-3.468975	TODAY	-0.5985054
-3.593913	TOMORROW	-0.2963585
-3.770005	TORNADO	-0.3009562
-2.991853	TOTOO	-1.062453
-3.770005	TOWARDS	-0.2971034
-3.372065	TRACK	-0.3507886
-3.770005	TRAHEDYA	-0.2905043
-3.770005	TRENTAY	-0.3006242
-3.770005	TRESE	-0.3009562
-3.071035	TROPICAL	-0.6014695
-3.225937	TROUGH	-0.3690081
-3.468975	TSAKA	-0.2952014
-3.116792	TSANSA	-0.3810862
-3.292883	TSANSANG	-0.543256
-3.593913	TUBIG	-0.2887628
-3.071035	TUGUEGARAO	-0.4306981
-3.770005	TULAD	-0.2843019
-3.593913	TULOY	-0.4721515
-3.167945	TUMAMA	-0.3995044
-3.770005	TUMAMANG	-0.2991822
-3.468975	TUMATAMA	-0.2817265
-3.770005	TUNGKOL	-0.292878
-3.770005	TUTUMBUKIN	-0.3005134
-3.770005	TUWING	-0.3005872
-3.770005	TUYONG	-0.3006242
-3.593913	TV	-0.2979955
-3.770005	TWELVE	-0.3005503
-2.232186	TWENTY	-0.7800689
-3.770005	TWITTER	-0.3009193
-2.539556	TWO	-0.5876167
-3.468975	TYPHOON	-0.2985893
-3.770005	U	-0.2905043
-2.238526	ULAN	-0.4760449
-3.770005	ULAP	-0.2893315
-3.372065	ULAT	-0.4460952
-3.770005	ULI	-0.2843019
-3.292883	ULIT	-0.2515567
-3.593913	UMAABOT	-0.2681782
-3.167945	UMABOT	-0.3841605
-2.639671	UMAGA	-0.3214791
-3.292883	UMIIRAL	-0.5030255
-3.225937	UMULAN	-0.3652075
-3.468975	UNA	-0.2705581
-3.770005	UNA'Y	-0.3005503
-3.468975	UNANG	-0.2976983
-3.770005	UNDERSCORE	-0.2997744
-3.071035	UNION	-0.3306021
-3.593913	UP	-0.3003288
-3.372065	UPDATE	-0.2950145
-3.593913	UULAN	-0.2681782
-3.372065	UULAT	-0.4758286
-3.770005	UUSAPAN	-0.3002549
-3.770005	UUWI	-0.298144
-2.815762	VALLEY	-0.3163314
-3.770005	VICINITY	-0.2843019
-2.458251	VISAYAS	-0.3707128
-3.770005	VISIBILITY	-0.2712695
-3.116792	VIZCAYA	-0.4020229
-3.770005	VIZCAYAT	-0.3008456
-3.770005	WAG	-0.3009562
-2.840586	WALA	-0.4117992
-2.840586	WALANG	-0.4718903
-3.029642	WARNING	-0.4396711
-3.770005	WE	-0.3009562
-2.502833	WEATHER	-0.5900583
-3.770005	WEBSITE	-0.3009562
-3.770005	WEEK	-0.2953883
-3.029642	WEEKEND	-0.3056746
-3.593913	WELCOME	-0.2625335
-3.770005	WELL	-0.3008825
-3.116792	WEST	-0.3838285
-3.167945	WESTERN	-0.5209199
-3.770005	WESTWARD	-0.2712695
-3.593913	WHICH	-0.4769737
-3.770005	WIND	-0.2991452
-3.372065	WINDS	-0.2580376
-3.770005	WOW	-0.3008456
-3.770005	WW	-0.3006242
-2.088763	YAN	-0.3821079
-3.116792	YANG	-0.3157572
-3.372065	YEAR	-0.2998114
-3.770005	YELLOW	-0.3009193
-3.593913	YELO	-0.2903153
-3.593913	YES	-0.4763831
-3.593913	YOLANDA	-0.2997004
-3.770005	YOLANDANG	-0.2991822
-3.770005	YOUTUBE	-0.2972522
-3.116792	YUN	-0.353237
-1.94393	YUNG	-0.3688582
-2.866915	ZAMBALES	-0.4425991
-2.991853	ZAMBOANGA	-0.4331483
-3.770005	ZERO	-0.3009562
-3.770005	ZONE	-0.2987376

\2-grams:
-1.681241	<s> ANG
-1.681241	<s> BERNADETTE
-1.681241	<s> DALAWANG
-1.681241	<s> ISANG
-1.681241	<s> KAPUSO
-1.681241	<s> KUYA
-1.681241	<s> LAGAY
-1.681241	<s> LUMAKAS
-0.8361432	<s> MAGANDANG	-0.1290947
-1.681241	<s> MAY
-0.7781513	<s> MGA	-0.4544573
-1.681241	<s> NAGPAPATULOY
-1.681241	<s> NASA
-1.681241	<s> PANAHON
-1.380211	<s> SA
-1.681241	<s> UPDATE
-1.681241	<s> WALANG
-0.243038	A COLD	0
-0.845098	A LOW
-0.60206	AABOT NG
-0.60206	AABOT SA
-0.30103	AALALA NG
-0.30103	AALAMIN LANG
-0.30103	AALAS SINGKO
-0.90309	AASAHAN NA
-0.90309	AASAHAN NATIN
-0.90309	AASAHAN PO
-0.90309	AASAHAN SA
-0.1249387	ABRA KALINGA
-0.30103	ABRIL AT
-0.30103	ABS DASH
-0.30103	ABS-CBN ANC
-0.60206	ACCOUNT PAG
-0.60206	ACCOUNT PAGASA
-0.30103	ACTUALLY NAKARANAS
-0.1760913	ADMINISTRATIVE REGION	-0.4116197
-0.1760913	AFTERNOON SAMANTALANG
-0.1760913	AGUSAN DEL
-0.03778856	AGWAT NG	-1.070348
-1.977724	AH AH
-1.977724	AH AMIHAN
-2.278754	AH ANG
-2.278754	AH ASAHAN
-2.278754	AH BAGO
-2.278754	AH BAGUIO
-2.278754	AH BAHAGYANG
-2.278754	AH BATANGAS
-2.278754	AH BENGUET
-1.977724	AH BENISON
-2.278754	AH BICOL
-1.977724	AH BUKAS	-0.4061901
-1.977724	AH CAGAYAN	-0.2750166
-2.278754	AH CAUSE
-2.278754	AH CEBU
-2.278754	AH CENTRO
-2.278754	AH COTABATO
-1.977724	AH DAVAO
-2.278754	AH DENR
-2.278754	AH EASTERN
-2.278754	AH FIFTY
-2.278754	AH FLASH
-2.278754	AH FORTY
-2.278754	AH GINOONG
-2.278754	AH HABAGAT
-2.278754	AH HALOS
-2.278754	AH HAMOG
-2.278754	AH HINDI
-1.977724	AH ITONG	-0.4507923
-2.278754	AH LANDSLIDE
-2.278754	AH LINDOL
-2.278754	AH LUMAKAS
-1.977724	AH LUZON
-2.278754	AH MABABA
-1.977724	AH MAGIGING
-2.278754	AH MAGING
-2.278754	AH MAKIKITA
-2.278754	AH MALALAKAS
-1.801632	AH MALAMIG	-0.1249387
-2.278754	AH MAMAYANG
-2.278754	AH MARAMDAMAN
-2.278754	AH MAS
-2.278754	AH MAULANG
-2.278754	AH MAULAP
-2.278754	AH METRO
-1.676694	AH MGA
-2.278754	AH MINDORO
-2.278754	AH MOUNTAIN
-2.278754	AH NAGLALARO
-2.278754	AH NAKIKITA
-2.278754	AH NG
-2.278754	AH NGAYONG
-2.278754	AH NONE
-1.977724	AH NORTHERN
-2.278754	AH O
-2.278754	AH PALAWAN
-2.278754	AH PANAHON
-2.278754	AH PILIPINAS
-2.278754	AH PINK
-2.278754	AH POSIBLE
-1.977724	AH POSIBLENG
-2.278754	AH PROBABILITY
-1.801632	AH PROBINSYA	-0.03778857
-2.278754	AH PULA
-2.278754	AH SA
-1.977724	AH SAMAR
-2.278754	AH SAMUEL
-2.278754	AH SECTION
-2.278754	AH SEVENTEEN
-2.278754	AH SINUSUNDAN
-2.278754	AH TAAS
-2.278754	AH TED
-2.278754	AH TEMPERATURE
-2.278754	AH THE
-2.278754	AH THIRTY
-2.278754	AH TROPICAL
-2.278754	AH ULAN
-2.278754	AH UMAGA
-2.278754	AH UUSAPAN
-2.278754	AH VISAYAS
-2.278754	AH WESTERN
-2.278754	AH YOLANDA
-1.977724	AH YUNG
-2.278754	AH ZAMBALES
-2.278754	AH ZAMBOANGA
-0.30103	AIR MASS
-0.7781513	AKLAN CAPIZ
-0.7781513	AKLAN MAHIHINANG
-0.7781513	AKLAN PROVINCES
-1.176091	AKO NAGKAKAMALI
-0.09691001	AKO PO	-1.087209
-0.30103	ALA UNA
-0.30103	ALABAT ISLAND
-0.69897	ALAMIN ANG
-0.39794	ALAMIN PO	-0.4291977
-1.380211	ALAS DIYES
-1.079181	ALAS DOS
-0.90309	ALAS NUEBE
-1.380211	ALAS ONSE
-1.380211	ALAS QUATRO
-1.380211	ALAS SAIS
-0.4771213	ALAS SINGKO	0.07255068
-0.30103	ALINSANGAN SA
-0.3679768	ALON AT
-0.544068	ALON SA
-1.531479	AM OK
-0.06908092	AM READY	0
-1.531479	AM TWELVE
-0.30103	AMA AT
-1.579784	AMIHAN AASAHAN
-1.579784	AMIHAN ANG
-1.579784	AMIHAN AT
-1.278754	AMIHAN AY
-1.579784	AMIHAN HALOS
-1.579784	AMIHAN JESSICA
-1.579784	AMIHAN KAPAG
-1.579784	AMIHAN KAYAT
-1.579784	AMIHAN MAY
-1.579784	AMIHAN MO
-1.579784	AMIHAN NA
-1.579784	AMIHAN NG
-1.579784	AMIHAN NIYA
-1.579784	AMIHAN NO
-1.579784	AMIHAN ONE
-1.579784	AMIHAN SA
-1.278754	AMIHAN SEASON
-1.579784	AMIHAN YUNG
-0.30103	AN THUNDERSTORM
-0.30103	ANC DZMM
-1.322219	AND CENTRAL
-1.322219	AND EASTERN
-1.322219	AND FOR
-1.322219	AND LANDSLIDE
-1.322219	AND METRO
-1.322219	AND RETRIEVAL
-1.021189	AND SIXTEEN
-0.845098	AND SOUTHERN	-0.03151706
-1.322219	AND WESTERN
-2.617	ANG AASAHAN
-1.71391	ANG AH
-2.31597	ANG ALON	-0.3309932
-2.617	ANG ANGAT
-2.139879	ANG ARAW
-2.31597	ANG ATIN	-0.3679768
-1.274578	ANG ATING	-0.06694679
-2.31597	ANG AURORA
-2.617	ANG BABUYAN
-1.91803	ANG BAGYO	-0.0807491
-1.91803	ANG BAGYONG	-0.06338698
-2.617	ANG BAYONG
-2.617	ANG BILIS
-2.617	ANG BUONG
-2.617	ANG BUWAN
-2.617	ANG CAGAYAN
-2.617	ANG CARAGA
-1.838849	ANG CENTRO	0.1091445
-2.01494	ANG CORDILLERA	-0.09870339
-2.617	ANG DAHILAN
-2.31597	ANG DAMANG	0.04575747
-2.617	ANG DAMI
-2.617	ANG DAVAO
-2.617	ANG DIFFERENCE
-2.617	ANG DULONG
-2.617	ANG EASTERLIES
-2.139879	ANG EASTERN
-2.617	ANG FORECAST
-2.617	ANG FORTY
-2.617	ANG GANITONG
-2.31597	ANG HABAGAT
-2.617	ANG HANGGANG
-2.31597	ANG HEAT	-0.30103
-2.617	ANG I
-2.617	ANG IBA'T-IBANG
-2.617	ANG IIRAL
-2.617	ANG IKALAWA
-2.617	ANG IKALAWANG
-2.01494	ANG ILANG	-0.03218466
-2.01494	ANG INAASAHAN
-2.617	ANG INAASAHANG
-1.71391	ANG INIT	-0.5936268
-2.31597	ANG ISA
-2.139879	ANG ISANG
-2.617	ANG ITCZ
-2.617	ANG KABISAYAAN
-2.617	ANG KALANGITAN
-2.31597	ANG KANYANG
-2.617	ANG KATAMTAMAN
-2.617	ANG KAULAPANG
-2.617	ANG KRITIKAL
-2.617	ANG LAGAY
-2.01494	ANG LAKAS	-0.5070845
-1.361728	ANG LATEST	-0.3372422
-2.617	ANG LEYTE
-2.617	ANG LOW
-2.31597	ANG LPA
-2.617	ANG LUGAR
-2.617	ANG MAGANDA
-1.71391	ANG MAGIGING	-0.08361066
-2.617	ANG MAGPAPAULAN
-2.31597	ANG MAHIHINANG
-2.31597	ANG MAHINA	-0.03778858
-2.617	ANG MAKAKAPAL
-2.617	ANG MAKAKARANAS
-2.31597	ANG MALAKAS	-0.0669468
-2.31597	ANG MALAKING	-0.0669468
-2.617	ANG MALAMIG
-2.617	ANG MARARAMDAMAN
-2.617	ANG MARARAMDAMANG
-2.617	ANG MARARANASAN
-2.617	ANG MAS
-2.139879	ANG MATA	-0.01772877
-2.617	ANG MAULANG
-2.31597	ANG MAXIMUM
-1.91803	ANG METRO	-0.2377482
-1.575608	ANG MGA	-0.1191696
-2.617	ANG MONSOON
-2.617	ANG NAFORECAST
-2.617	ANG NAG
-2.31597	ANG NANGYAYARI
-2.617	ANG NAPAKALAKAS
-2.31597	ANG NARAMDAMAN
-2.31597	ANG NASA	-0.4607309
-2.617	ANG NILALAMAN
-2.617	ANG NORTH
-2.617	ANG NORTHERN
-2.617	ANG NUEVA
-2.617	ANG OUTING
-2.617	ANG PAGASA
-2.617	ANG PAGKAKAIBA
-2.617	ANG PAGKILOS
-2.617	ANG PAGLALAYAG
-2.617	ANG PAGPAPAULAN
-2.617	ANG PALARONG
-2.01494	ANG PANAHON	-0.6066557
-2.617	ANG PANGASINAN
-2.617	ANG PANGUNAHING
-2.31597	ANG PATULOY	-0.3309932
-2.31597	ANG PINAKAHULING	-0.2552725
-2.617	ANG PINANGGAGALINGAN
-2.31597	ANG POLILLO
-2.617	ANG PORSYENTO
-2.01494	ANG POSIBLENG	-0.09782336
-2.617	ANG PROBLEMA
-2.617	ANG PUMAPATAK
-2.617	ANG QUEZON
-2.617	ANG RANGE
-2.617	ANG SA
-2.31597	ANG SIGNAL	-0.1249387
-2.617	ANG SOUTHERN
-2.617	ANG SOUTHWEST
-2.31597	ANG STORM	-0.3899711
-2.139879	ANG SUNRISE	-0.30103
-2.617	ANG TAKBO
-2.617	ANG TATLONG
-2.31597	ANG TEMPERATURA
-2.617	ANG TEMPERATURE
-2.617	ANG THUNDERSTORM
-2.31597	ANG TINATAYANG	-0.2552725
-2.617	ANG TRESE
-2.617	ANG TROPICAL
-2.617	ANG TSANSA
-1.91803	ANG TSANSANG	0
-2.617	ANG U
-1.771902	ANG ULAN	-0.03512905
-2.617	ANG ULAT
-2.617	ANG UNA
-2.617	ANG UNA'Y
-2.617	ANG UNANG
-2.617	ANG VISAYAS
-2.617	ANG YELLOW
-2.617	ANG ZAMBALES
-0.30103	ANGAT DAM
-0.90309	ANO ANG
-0.90309	ANO BANG
-0.90309	ANO BUKAS
-0.90309	ANO NIYA
-0.30103	ANONG PINAKAMALAMIG
-0.30103	ANTIQUE PAPUNTA
-0.30103	ANUMANG BAHAGI
-0.30103	ANYOS NA
-0.1760913	APARRI CAGAYAN
-0.39794	APAYAO ABRA	0.1249387
-0.69897	APAYAO PANGASINAN
-1.041393	APEKTADO ANG
-0.4393327	APEKTADO NG	-0.1350579
-1.041393	APEKTADO PA
-1.041393	APEKTADO RIN
-1.716003	ARAW ANG
-1.414973	ARAW AT
-1.716003	ARAW AY
-1.716003	ARAW BASE
-1.414973	ARAW INAASAHAN
-1.716003	ARAW INAASAHANG
-1.716003	ARAW KABILANG
-1.716003	ARAW LALO
-1.716003	ARAW LALONG
-1.017033	ARAW NA	-0.3603859
-1.716003	ARAW NAKIKITANG
-1.716003	ARAW NATIN
-0.8129134	ARAW NG	-0.2064591
-1.716003	ARAW PERO
-1.017033	ARAW PO	-0.303454
-1.414973	ARAW SA
-1.716003	ARAW YAN
-1.591065	AREA ANG
-1.591065	AREA AT
-1.591065	AREA DITO
-1.591065	AREA HANGGANG
-1.591065	AREA HINDI
-1.290035	AREA NA
-1.591065	AREA NAMAN
-1.591065	AREA O
-0.4771213	AREA OF	-0.9852768
-1.591065	AREA PAG
-1.113943	AREA SA	-0.2187227
-1.591065	AREA YUNG
-0.30103	AS PHYSICS
-0.6690068	ASAHAN ANG	-0.147496
-1.447158	ASAHAN DING
-1.447158	ASAHAN DITO
-1.146128	ASAHAN NAMAN
-1.146128	ASAHAN NATIN
-0.748188	ASAHAN PA	-0.4860761
-0.845098	ASAHAN PO	-0.2531064
-0.30103	ASAHANG MAKAKARANAS
-0.30103	ASUL NA
-1.962843	AT AH
-2.360783	AT AKLAN
-2.661813	AT ALA
-2.661813	AT ALABAT
-2.661813	AT ALAS
-1.883661	AT ANG	-0.3161072
-2.184691	AT AURORA
-2.661813	AT BABAYBAYIN
-2.661813	AT BABUYAN
-2.661813	AT BAHAGYANG
-2.661813	AT BARMM
-2.661813	AT BATAAN
-2.661813	AT BOHOL
-2.184691	AT BUGSO	0
-2.661813	AT BUKAS
-2.661813	AT BULACAN
-2.661813	AT BUONG
-2.360783	AT CABANATUAN	0.1249387
-2.360783	AT CAGAYAN	-0.2750166
-2.360783	AT CAMARINES
-2.661813	AT CAMIGUIN
-2.661813	AT CARAGA
-2.661813	AT CATANDUANES
-2.360783	AT CATBALOGAN
-2.184691	AT CENTRAL	-0.09017663
-2.661813	AT CORDILLERA
-2.661813	AT COTABATO
-2.661813	AT DAPITAN
-1.883661	AT DAVAO	-0.09490402
-2.661813	AT DELIKADO
-2.360783	AT DIRECTION
-1.758723	AT DITO	0.1298461
-1.758723	AT DIYAN	-0.3849064
-2.661813	AT DRY
-2.661813	AT EASTERLIES
-2.360783	AT EASTERN
-2.661813	AT FLASH
-2.360783	AT FOR
-2.661813	AT FORTY
-2.360783	AT GABI	-0.4569179
-2.661813	AT GANUN
-2.661813	AT GAYUNDIN
-2.661813	AT GENERAL
-2.661813	AT GOOD
-2.661813	AT GREEN
-2.661813	AT GUSTINESS
-2.661813	AT HABANG
-2.661813	AT HEAT
-2.661813	AT HIHIGUPIN
-2.661813	AT HINDI
-2.661813	AT HULI
-2.661813	AT ILAN
-2.661813	AT ILANG
-2.059753	AT ILOCOS	-0.1362197
-2.661813	AT INAASAHAN
-2.661813	AT INAASAHANG
-2.184691	AT ISA	-0.1492981
-2.661813	AT ISABELA
-2.661813	AT ITO
-2.661813	AT ITONG
-2.661813	AT KAILAN
-2.661813	AT KALAYAAN
-2.661813	AT KANINA
-2.661813	AT KANINANG
-2.661813	AT KASALUKUYAN
-2.661813	AT KATULAD
-2.661813	AT KAUGNAY
-2.661813	AT KAY
-2.661813	AT KIDLAT
-2.661813	AT KUMIKILOS
-2.661813	AT KUNG
-2.184691	AT LA	0.39794
-2.661813	AT LALABAS
-2.360783	AT LANDSLIDE
-2.661813	AT MAALINSANGAN
-2.661813	AT MAARAW
-2.661813	AT MAG
-2.661813	AT MAGHAPON
-1.962843	AT MAGING	-0.5910646
-2.661813	AT MAGTUTULOY
-2.661813	AT MAHINA
-2.661813	AT MALAKAS
-2.661813	AT MALALAKING
-2.661813	AT MANATILING
-2.059753	AT MAULAN	-0.2477845
-2.059753	AT MAY	-0.124749
-2.059753	AT MGA	-0.1416889
-2.661813	AT MIMAROPA
-1.758723	AT MINDANAO	-0.04465717
-2.184691	AT MINDORO	-0.1674911
-2.661813	AT MOMENTUM
-2.360783	AT MULA
-2.360783	AT NAGING
-2.661813	AT NAKA
-2.360783	AT NALALABING	0.2218487
-2.661813	AT NANATILI
-2.661813	AT NANDITO
-2.661813	AT NAPANSIN
-2.184691	AT NARITO	-0.09691002
-2.184691	AT NASA
-2.184691	AT NATITIRANG	0.5740312
-2.360783	AT NEGROS
-2.184691	AT NG
-2.360783	AT NGAYONG
-2.184691	AT NORTHERN	-0.1991848
-2.661813	AT OCCIDENTAL
-2.661813	AT PAG
-2.360783	AT PAGBUGSO
-2.661813	AT PAGDATING
-2.661813	AT PAGGUHO
-1.962843	AT PAGKIDLAT	-0.3802113
-2.059753	AT PAGKULOG	-0.1026623
-2.661813	AT PALALAKASIN
-2.360783	AT PANGASINAN
-2.661813	AT PAPALABAS
-2.360783	AT PARA
-2.661813	AT PATROL
-2.661813	AT POSIBLE
-2.661813	AT POSIBLENG
-2.661813	AT PULA
-2.360783	AT QUEZON
-2.661813	AT REAL
-2.661813	AT REHIYON
-2.661813	AT ROMBLON
-1.082029	AT SA	-0.08934522
-2.661813	AT SABADO
-2.360783	AT SAMAR	-0.3843672
-2.661813	AT SILIPIN
-2.661813	AT SISIKAT
-2.184691	AT SOCSARGEN
-2.360783	AT SOUTHERN	-0.2867896
-2.661813	AT SUNOG
-2.661813	AT TAGBILARAN
-2.360783	AT TAGLAY	-0.2730013
-2.661813	AT TATAWIRIN
-2.184691	AT THIRTY	-0.1539485
-2.661813	AT THIS
-2.184691	AT THUNDERSTORMS	-0.3679768
-2.661813	AT TINAWAG
-2.360783	AT TSAKA
-2.059753	AT TWENTY	-0.05055637
-2.360783	AT VISAYAS
-2.661813	AT WALANG
-1.547869	AT YAN	-0.5351132
-2.059753	AT YUNG
-2.661813	AT ZAMBALES
-2.661813	AT ZAMBOANGA
-0.9542425	ATIN NABUBUO
-0.9542425	ATIN NAMANG
-0.6532125	ATIN PONG
-0.9542425	ATIN YUNG
-1.352183	ATING AH
-1.954242	ATING ARAW
-1.954242	ATING AREA
-1.051152	ATING BANSA
-1.954242	ATING FACEBOOK
-1.653213	ATING FIVE	-0.4597472
-1.352183	ATING GALE	0.20412
-1.954242	ATING HIMAWARI
-1.954242	ATING INAASAHAN
-1.954242	ATING INAASAHANG
-1.653213	ATING INIT	-0.1165056
-1.653213	ATING KALANGITAN
-1.954242	ATING KALUPAAN
-1.954242	ATING KARAGATAN
-1.954242	ATING LAGAY
-1.352183	ATING LAHAT	-0.2552725
-1.954242	ATING LATEST
-1.954242	ATING LUZON
-0.8750613	ATING MGA	-0.482486
-1.176091	ATING PANAHON	-0.1959585
-1.653213	ATING PAR
-1.954242	ATING PINAG
-1.954242	ATING TAYA
-1.954242	ATING TWITTER
-1.954242	ATING WEATHER
-1.954242	ATING WEBSITE
-1.954242	ATING YOUTUBE
-1.380211	AURORA ANG
-1.380211	AURORA AREA
-1.079181	AURORA AT
-1.681241	AURORA AY
-1.681241	AURORA AYON
-1.681241	AURORA DIYAN
-1.681241	AURORA ILOCOS
-1.681241	AURORA ISABELA
-1.681241	AURORA MAGING
-1.380211	AURORA NGAYONG	-0.3716111
-1.681241	AURORA NUEVA
-1.380211	AURORA PAGDATING	-0.2382392
-1.681241	AURORA PROVINCES
-1.380211	AURORA QUEZON
-1.681241	AURORA QUIRINO
-1.681241	AURORA SAMANTALA
-1.681241	AURORA SOUTHERN
-1.681241	AURORA TAGLAY
-1.681241	AURORA YANG
-1.681241	AURORA ZAMBALES
-0.30103	AURORAT QUEZON
-0.30103	AWAY PERO
-0.30103	AXIS O
-2.146128	AY AH
-2.146128	AY ARAW
-1.845098	AY ASAHAN
-2.146128	AY ASAHANG
-2.146128	AY BAHAGING
-2.146128	AY BAHAGYANG
-1.845098	AY DAHIL
-2.146128	AY DULOT
-2.146128	AY ELEVEN
-2.146128	AY FIFTEEN
-2.146128	AY FIVE
-2.146128	AY GENERAL
-2.146128	AY GENERALLY
-1.544068	AY HINDI	-0.223864
-2.146128	AY INA
-1.669007	AY INAASAHAN
-2.146128	AY ISA
-1.845098	AY ITONG
-1.845098	AY KUNG
-2.146128	AY LULUBOG
-1.845098	AY MAGIGING	-0.4279032
-2.146128	AY MAKAKARANAS
-1.845098	AY MALAKAS	-0.0669468
-1.845098	AY MAY
-2.146128	AY MAYROON
-2.146128	AY MERON
-0.7659168	AY MULA	-0.5364516
-2.146128	AY NAGPAPALAKAS
-2.146128	AY NAGPAPAULAN
-2.146128	AY NAITALA
-1.845098	AY NAKAKAAPEKTO	-0.3802113
-1.669007	AY NAKATAAS	-0.3912066
-2.146128	AY NAMATAAN
-2.146128	AY NANANATILI
-1.243038	AY NASA	-0.0713116
-2.146128	AY PARA
-1.544068	AY PATULOY
-1.845098	AY PINAPAYUHANG	0
-2.146128	AY PWEDE
-2.146128	AY SIMULA
-1.845098	AY SIX
-2.146128	AY TATAWIDIN
-2.146128	AY TUMAMA
-2.146128	AY TUYONG
-2.146128	AY TWENTY
-1.079181	AYON PO
-0.1249387	AYON SA	-0.9932736
-0.60206	B ALAS
-0.60206	B RADYO
-0.7781513	BA MALAMIG
-0.7781513	BA TAYONG
-0.7781513	BA YUNG
-0.30103	BABA WALA
-0.30103	BABALA NG
-0.60206	BABALIK SA
-0.60206	BABALIK ULIT
-0.30103	BABAYBAYIN NG
-0.9542425	BABUYAN CAGAYAN
-0.6532125	BABUYAN GROUP	0.1249387
-0.9542425	BABUYAN HILAGANG
-0.9542425	BABUYAN ISLANDS
-0.30103	BACOLOD AT
-0.60206	BAGAMAT MAY
-0.60206	BAGAMAT WALA
-0.7781513	BAGO MAG
-0.7781513	BAGO PUMASOK
-0.7781513	BAGO TUMAMA
-0.1760913	BAGONG LOW	0.5642715
-1.361728	BAGUIO AH
-0.8846066	BAGUIO AY	-0.52039
-0.7596679	BAGUIO CITY	-0.1226469
-1.361728	BAGUIO DAHIL
-1.361728	BAGUIO EH
-1.361728	BAGUIO MAKAKARANAS
-1.361728	BAGUIO NAMAN
-1.361728	BAGUIO TWENTY
-1.361728	BAGUIO WALA
-1.119476	BAGYO ANG	-0.07867587
-1.897627	BAGYO APEKTADO
-1.198657	BAGYO AT
-1.897627	BAGYO BIGLANG
-1.897627	BAGYO BUKAS
-1.897627	BAGYO DAHIL
-1.897627	BAGYO HABANG
-1.897627	BAGYO HULING
-1.897627	BAGYO INAASAHAN
-1.897627	BAGYO ITONG
-1.897627	BAGYO JESSICA
-1.897627	BAGYO KAHIT
-1.897627	BAGYO KASALUKUYAN
-1.897627	BAGYO KASI
-1.897627	BAGYO KAYA
-1.897627	BAGYO MALAPIT
-1.897627	BAGYO MATAAS
-1.295567	BAGYO NA
-1.897627	BAGYO NANDUN
-1.897627	BAGYO NASA
-1.897627	BAGYO NO
-1.897627	BAGYO PAHILAGANG
-1.295567	BAGYO PERO
-1.897627	BAGYO POSIBLE
-1.897627	BAGYO ROSITA
-1.198657	BAGYO SA	-0.1051211
-1.897627	BAGYO THIS
-1.897627	BAGYO TOWARDS
-1.897627	BAGYO UMABOT
-1.897627	BAGYO YAN
-1.477121	BAGYONG ITO
-1	BAGYONG JENNY	0
-1.477121	BAGYONG LIWAYWAY
-1	BAGYONG MARILYN
-1.477121	BAGYONG NABUO
-1.477121	BAGYONG NAMAMATAAN
-1.176091	BAGYONG NINA
-1.477121	BAGYONG ONYOK
-1.477121	BAGYONG PEPITO
-1.477121	BAGYONG ROSITA
-0.8750613	BAGYONG SAMUEL
-0.30103	BAHA YUNG
-1.799341	BAHAGI LALO
-1.799341	BAHAGI NAMAN
-0.1365827	BAHAGI NG	-0.2243576
-1.799341	BAHAGI NGA
-1.799341	BAHAGI NITO
-1.498311	BAHAGI PA
-1.498311	BAHAGI PO	-0.4416834
-1.799341	BAHAGI YUNG
-0.60206	BAHAGING TATAAS
-0.60206	BAHAGING YAN
-1	BAHAGYANG BUMABA
-1	BAHAGYANG BUMILIS
-1	BAHAGYANG LALAKAS
-0.5228788	BAHAGYANG MAULAP
-0.30103	BAHAY EH
-0.30103	BAKIT PO
-0.30103	BALER AURORA
-0.30103	BALITA AKO
-0.30103	BANG PAGKAKAIBA
-0.60206	BANGKA GABI
-0.60206	BANGKA MGA
-0.30103	BANGSAMORO NORTHERN
-1.579784	BANSA ALAMIN
-1.278754	BANSA ANG
-1.579784	BANSA AT
-1.278754	BANSA AY
-1.278754	BANSA BUKAS
-1.579784	BANSA ITO
-1.579784	BANSA ITONG
-1.579784	BANSA KAHAPON
-1.579784	BANSA KASAMA
-1.579784	BANSA KESA
-1.579784	BANSA MULA
-0.9777236	BANSA NGAYONG
-1.579784	BANSA PARA
-1.579784	BANSA PARTIKULAR
-1.579784	BANSA SA
-1.579784	BANSA YAN
-0.39794	BANTA NG
-0.69897	BANTA RIN
-0.60206	BARMM AT
-0.60206	BARMM LALO
-0.30103	BASA PA
-0.1249387	BASCO BATANES
-0.09691001	BASE SA	-0.1416553
-0.8129134	BATAAN CAVITE
-1.113943	BATAAN KAYA
-1.113943	BATAAN PAMPANGA
-1.113943	BATAAN PANGASINAN
-1.113943	BATAAN RIZAL
-1.113943	BATAAN ZAMBALES
-1.255273	BATANES ANG
-0.9542425	BATANES AT
-0.9542425	BATANES CALAYAN
-1.255273	BATANES GROUP
-1.255273	BATANES KALAYAAN
-1.255273	BATANES KUNG
-1.255273	BATANES PERO
-1.255273	BATANES TAGLAY
-0.7781513	BATANGAS BATAAN
-0.7781513	BATANGAS HANGGANG
-0.7781513	BATANGAS PALAWAN
-0.1760913	BATAY SA
-0.30103	BAWAL PUMALAOT
-0.30103	BAWAT ORAS
-0.30103	BAY ZAMBALES
-0.1760913	BAYBAYIN NG
-0.07918125	BAYBAYING DAGAT	-0.1294864
-0.30103	BAYONG PEPITO
-0.7403627	BENGUET AT
-1.041393	BENGUET ILOCOS
-1.041393	BENGUET LA
-1.041393	BENGUET NUEVA
-1.041393	BENGUET PANGASINAN
-0.90309	BENISON AT
-0.90309	BENISON ESTAREJA
-0.90309	BENISON MAGANDANG
-0.90309	BENISON SA
-0.845098	BENTE NUEBE
-0.544068	BENTE QUATRO	-0.2552725
-0.845098	BENTE SAIS
-0.30103	BERNADETTE LUMAKAS
-0.30103	BHAGYA PONG
-0.243038	BICOL REGION
-0.845098	BICOL WESTERN
-0.30103	BIGLAANG PAGBAHA
-0.60206	BIGLANG PAGBAHA
-0.60206	BIGLANG SA
-0.30103	BIKOL REGION
-0.60206	BIKTIMA HABANG
-0.60206	BIKTIMA NG
-0.30103	BILIRAN LEYTE
-0.60206	BILIS NA
-0.60206	BILIS NAMAN	-0.4704397
-0.90309	BILIS NG
-0.60206	BINABANTAYAN NG
-0.60206	BINABANTAYAN NGAYONG
-0.30103	BINABANTAYANG ISANG
-0.30103	BINATAYAN NATING
-0.30103	BINATILYO PATAY
-0.30103	BISITAHIN ANG
-0.30103	BIYERNES DECEMBER
-0.845098	BOHOL AT
-0.544068	BOHOL CEBU
-0.845098	BOHOL PAGDATING
-0.30103	BORACAY AT
-0.30103	BOUNDARY SA
-0.30103	BREAK O
-0.30103	BUBONG NAGKAROON
-0.30103	BUBUTI NA
-0.30103	BUENAVISTA QUEZON
-0.39794	BUGSO NA	-0.474966
-0.69897	BUGSO NG
-0.30103	BUGSONG PUMAPALO
-0.30103	BUHAWI ANG
-0.1249387	BUHOS NG	-0.5954518
-0.30103	BUKA O
-1.863323	BUKAS ALAS
-1.863323	BUKAS ANG
-1.863323	BUKAS ASAHAN
-1.386202	BUKAS AT
-1.863323	BUKAS AY
-1.863323	BUKAS DAHIL
-1.863323	BUKAS DIYAN
-1.863323	BUKAS EH
-1.863323	BUKAS HANGGANG
-1.863323	BUKAS HUWEBES
-1.863323	BUKAS INAASAHANG
-1.863323	BUKAS LALO
-1.863323	BUKAS MAGHAPON
-1.863323	BUKAS MAGIGING
-1.863323	BUKAS MAKAKAASA
-1.863323	BUKAS MGA
-1.863323	BUKAS MULA
-1.562293	BUKAS NA	-0.464026
-1.863323	BUKAS NAMAN
-0.8219302	BUKAS NG	-0.246035
-1.386202	BUKAS PERO
-1.562293	BUKAS PO	-0.4486602
-1.863323	BUKAS POSIBLENG
-1.261263	BUKAS SA	-0.1416553
-1.863323	BUKAS WALA
-1.386202	BUKAS YAN
-0.30103	BUKIDNON NAGULAT
-1	BULACAN KUNG
-1	BULACAN MASUNGIT
-1	BULACAN PAMPANGA
-1	BULACAN RIZAL
-1	BULACAN TARLAC
-0.30103	BULLETIN NG
-0.7781513	BUMABA ANG
-0.7781513	BUMABA PA
-0.7781513	BUMABA PO
-0.30103	BUMAGSAK SA
-0.1760913	BUMILIS ANG
-0.60206	BUNDOK MALAPIT
-0.60206	BUNDOK NG
-0.60206	BUNTOT AY
-0.60206	BUNTOT NG
-1	BUONG ARAW
-1.477121	BUONG CENTRAL
-1.477121	BUONG KABIKULAN
-1.477121	BUONG KABISAYAAN
-1	BUONG LUZON
-1	BUONG MINDANAO
-1.477121	BUONG NORTHERN
-1.477121	BUONG REHIYON
-0.8750613	BUONG VISAYAS
-1.176091	BUONG WEEKEND
-0.1760913	BUWAN NG	-0.4749297
-0.1249387	CABANATUAN AT
-0.30103	CACAUSE NG
-1.633469	CAGAYAN APAYAO
-1.031408	CAGAYAN AT
-1.633469	CAGAYAN AYON
-1.633469	CAGAYAN BUKAS
-1.633469	CAGAYAN CORDILLERA
-1.633469	CAGAYAN DIYAN
-1.633469	CAGAYAN HABANG
-1.633469	CAGAYAN ILOCOS
-1.633469	CAGAYAN INAASAHAN
-1.031408	CAGAYAN ISABELA	-0.08813609
-0.4293485	CAGAYAN VALLEY	0.01523997
-0.6532125	CALABARZON AT
-0.9542425	CALABARZON CAGAYAN
-0.9542425	CALABARZON MARINDUQUE
-0.9542425	CALABARZON MIMAROPA
-0.30103	CALAPAN AT
-0.60206	CALAYAN BABUYAN
-0.60206	CALAYAN NORTHERN
-0.39794	CAMARINES NORTE
-0.69897	CAMARINES PROVINCES
-1	CAMARINES SUR
-0.30103	CAMIGUIN SA
-0.30103	CAMP PHILLIPS
-0.1760913	CAPIZ AT
-0.6690068	CARAGA AT	-0.5963455
-1.146128	CARAGA DAVAO
-1.146128	CARAGA MGA
-1.146128	CARAGA NORTHERN
-1.146128	CARAGA REGION
-1.146128	CARAGA SA
-0.1249387	CASIGURAN AURORA
-0.30103	CATANDUANES KAHIT
-0.90309	CATBALOGAN ANG
-0.4259687	CATBALOGAN AT
-0.90309	CATBALOGAN SA
-0.30103	CATEGORY TAGLAY
-0.30103	CAUSE NG
-0.7781513	CAVITE AT
-0.7781513	CAVITE BATANGAS
-0.7781513	CAVITE LAGUNA
-0.30103	CBN DOT
-1.322219	CEBU ANG
-0.845098	CEBU AT
-0.845098	CEBU AY	-0.1401787
-1.322219	CEBU CITY
-1.322219	CEBU DIYAN
-1.322219	CEBU EH
-1.021189	CEBU INAASAHANG
-1.322219	CEBU SIQUIJOR
-0.7712024	CELSIUS ANG	-0.216046
-1.31527	CELSIUS AT	-0.3063199
-2.093422	CELSIUS BHAGYA
-2.093422	CELSIUS DIYAN
-1.6163	CELSIUS DOON	-0.1492981
-1.792392	CELSIUS DUMAKO	0.3679768
-1.792392	CELSIUS HABANG	-0.3606157
-1.792392	CELSIUS HANGGANG
-2.093422	CELSIUS KANINA
-2.093422	CELSIUS KAYA
-2.093422	CELSIUS METRO
-2.093422	CELSIUS MGA
-1.491362	CELSIUS NA	-0.6935616
-0.8893017	CELSIUS NAMAN	-0.3761867
-2.093422	CELSIUS O
-2.093422	CELSIUS PATAAS
-1.792392	CELSIUS PO
-0.8381492	CELSIUS SA	-0.1434499
-1.491362	CELSIUS SAMANTALA	-0.1119737
-1.6163	CELSIUS SAMANTALANG	-0.1171134
-2.093422	CELSIUS SILIPIN
-2.093422	CELSIUS SUNSET
-1.190332	CELSIUS YUNG	-0.1957647
-0.90309	CENTER FOR
-0.90309	CENTER NG
-0.90309	CENTER SHERY
-0.90309	CENTER SHERYL
-1.113943	CENTRAL AND	-0.4101745
-1.414973	CENTRAL AT
-0.1597008	CENTRAL LUZON	-0.01569013
-1.414973	CENTRAL SECTION
-0.05115252	CENTRO NG	-0.2862062
-0.30103	CHANCE OF
-0.30103	CI PENINSULA
-0.30103	CITIES METRO
-1.278754	CITY ANG	-0.4739628
-1.278754	CITY AT
-1.102662	CITY AY
-1.579784	CITY CAGAYAN
-1.579784	CITY FORTY
-1.579784	CITY HALOS
-1.278754	CITY KANINA
-1.579784	CITY KAYA
-1.278754	CITY KUNG	-0.4121805
-1.579784	CITY MGA
-1.278754	CITY NAMAN
-1.579784	CITY PANGASINAN
-1.278754	CITY SA
-1.579784	CITY TWO
-1.579784	CITY YUNG
-0.30103	CLOSE UP
-0.39794	COAST GUARD	0
-0.69897	COAST NG
-1	COAST PO
-0.09691001	COLD FRONT	0
-0.30103	COM AT
-0.60206	COMPANY INAASAHAN
-0.60206	COMPANY MAKAKARANAS
-0.30103	COMPOSTELA VALLEY
-0.30103	CONDITION DITO
-0.30103	CONVERGENCE ZONE
-0.30103	COOL TEMPERATURES
-1.161368	CORDILLERA ADMINISTRATIVE	0
-0.9852768	CORDILLERA AT	-0.2180475
-1.462398	CORDILLERA AY
-1.161368	CORDILLERA CAGAYAN	-0.2750166
-1.462398	CORDILLERA DIYAN
-0.860338	CORDILLERA ILOCOS	-0.1362197
-1.462398	CORDILLERA LA
-1.462398	CORDILLERA MAKARANAS
-1.462398	CORDILLERA REGION
-1.462398	CORDILLERA SA
-1.462398	CORDILLERA SIERRA
-0.6532125	COTABATO CITY
-0.4771213	COTABATO FORTY	-0.1408155
-0.9542425	COTABATO SA
-0.30103	COUNTRY DAHIL
-0.8653014	CRUZ </s>
-1.342423	CRUZ GMA
-0.30103	CRUZ MAGPLANO	0
-1.342423	CRUZ MANG
-1.342423	CRUZ NAG
-0.39794	CYCLONE WARNING	-0.4149733
-0.69897	CYCLONE WINDS
-0.30103	DA METRO
-0.30103	DAAN SA
-0.30103	DAANG KILOMETRO
-0.30103	DADAAN NG
-0.9542425	DADAANAN DIN
-0.6532125	DADAANAN NG
-0.9542425	DADAANAN NIYA
-0.9542425	DADAANAN ULIT
-0.30103	DADALHIN PAGULAN
-1.278754	DAGAT DOON
-1.278754	DAGAT JESSICA
-1.278754	DAGAT KAHIT
-0.9777236	DAGAT NA
-0.8016323	DAGAT NG	-0.2152406
-1.278754	DAGAT POSIBLENG
-1.278754	DAGAT SA
-1.278754	DAGAT SO
-0.8129134	DAGUPAN AT
-1.113943	DAGUPAN CITY
-0.8129134	DAGUPAN FORTY
-1.113943	DAGUPAN NASA
-0.8129134	DAGUPAN PANGASINAN
-1.716003	DAHIL ANG
-1.716003	DAHIL DAMANG
-1.238882	DAHIL DIYAN	-0.2142293
-1.716003	DAHIL FAIR
-1.716003	DAHIL GENERALLY
-1.716003	DAHIL INAASAHAN
-1.716003	DAHIL ISOLATED
-1.716003	DAHIL LUBHA
-1.716003	DAHIL MALAWAK
-1.716003	DAHIL MARAMING
-1.716003	DAHIL MAY
-1.716003	DAHIL MGA
-1.716003	DAHIL NA
-1.238882	DAHIL NAMAN	-0.1339612
-1.414973	DAHIL NGA
-1.716003	DAHIL PA
-1.414973	DAHIL PATULOY	-0.3309932
-1.414973	DAHIL PO	-0.4125985
-1.716003	DAHIL POSIBLENG
-0.9378521	DAHIL SA
-0.30103	DAHILAN KUNG
-0.60206	DALA DALANG
-0.60206	DALA NITO
-0.845098	DALANG PANGANIB
-0.845098	DALANG TUBIG
-0.544068	DALANG ULAN
-1.20412	DALAWANG ARAW
-1.20412	DALAWANG DAANG
-1.20412	DALAWANG HANGIN
-1.20412	DALAWANG LOW
-1.20412	DALAWANG MALAKING
-1.20412	DALAWANG MALALAKING
-1.20412	DALAWANG PUNG
-1.20412	DALAWANG WEATHER
-0.30103	DAM EH
-0.30103	DAMA NILA
-1	DAMANG DAMA
-0.154902	DAMANG INIT	-0.2036557
-0.30103	DAMI NG
-0.90309	DAPAT I
-0.90309	DAPAT MAGING
-0.90309	DAPAT NATING
-0.90309	DAPAT PO
-0.30103	DAPITAN AT
-0.30103	DARANAS NG
-0.30103	DARATING DITO
-0.30103	DASH CBN
-0.30103	DATI SA
-0.30103	DATING NG
-0.04139268	DATOS NG	-0.4970596
-1.01424	DAVAO AT
-1.190332	DAVAO AY	-0.3954512
-1.190332	DAVAO CITY
-1.491362	DAVAO DEL
-1.491362	DAVAO HABANG
-1.491362	DAVAO NAMAN
-1.01424	DAVAO ORIENTAL
-0.8893017	DAVAO REGION	-0.6334684
-1.491362	DAVAO SA
-1.491362	DAVAO TWENTY
-1.491362	DAVAO WE
-0.30103	DAW NARARAMDAMAN
-0.7781513	DECEMBER EIGHT
-0.7781513	DECEMBER SIX
-0.7781513	DECEMBER SIXTEEN
-0.30103	DEFINITELY HINDI
-0.004278798	DEGREES CELSIUS	0
-0.4771213	DEL NORTE
-0.3521825	DEL SUR
-0.09691001	DELA CRUZ	-0.2373609
-0.30103	DELIKADO SA
-0.30103	DENR NO
-0.845098	DEPRESSION AT
-0.845098	DEPRESSION MALAPIT
-0.544068	DEPRESSION SAMUEL
-0.30103	DI NA
-0.30103	DIFFERENCE NG
-0.30103	DILAW AT
-1.556303	DIN AASAHAN
-0.9542425	DIN ANG
-1.079181	DIN ITONG
-1.556303	DIN KASAMA
-1.556303	DIN MANG
-1.556303	DIN MAULAN
-1.556303	DIN PERO
-1.556303	DIN PINAPAYAGAN
-0.9542425	DIN PO
-1.255273	DIN SA
-1.556303	DIN TAYO
-1.556303	DIN YUN
-1.255273	DIN YUNG
-0.09691001	DINAGAT ISLAND
-0.30103	DING MAGING
-0.90309	DIRECTION AY
-0.90309	DIRECTION INAASAHANG
-0.90309	DIRECTION PAKANLURAN
-0.90309	DIRECTION PO
-1.472269	DITO DUMAKO	0.243038
-1.94939	DITO IEXPLAIN
-1.94939	DITO KASI
-1.94939	DITO LALONG
-1.94939	DITO LANG
-1.94939	DITO METRO
-1.472269	DITO NA	-0.2131626
-1.94939	DITO NALAMANG
-1.34733	DITO NAMAN	-0.2131425
-1.94939	DITO PAGTAMA
-1.0463	DITO PO	-0.8897197
-0.2333867	DITO SA	-0.1494988
-2.060698	DIYAN ALAMIN
-1.2156	DIYAN ANG	-0.06833418
-1.759668	DIYAN ASAHAN
-2.060698	DIYAN JESSICA
-2.060698	DIYAN MARAMING
-2.060698	DIYAN MAY
-2.060698	DIYAN NA
-1.759668	DIYAN NG
-2.060698	DIYAN PO
-0.1364186	DIYAN SA	-0.3893114
-1.583577	DIYAN YUNG	-0.2175909
-0.30103	DIYES PO
-0.30103	DOBLE INGAT
-0.30103	DOBLENG INGAT
-0.1760913	DOBOL B
-1.414973	DOON AY
-1.414973	DOON DUMAKO
-1.414973	DOON MALIBAN
-0.8129134	DOON NAMAN	-0.3283329
-1.414973	DOON NG
-1.113943	DOON PO	-0.4125985
-0.4607309	DOON SA	-0.03104958
-0.60206	DOS AT
-0.60206	DOS YAN
-0.544068	DOST DOT	-0.4191293
-0.845098	DOST NAG
-0.845098	DOST UNDERSCORE
-1.20412	DOT ABS
-1.20412	DOT COM
-0.90309	DOT DOST	-0.3309932
-0.90309	DOT GOV	0
-1.20412	DOT PAGASA
-0.7269987	DOT PH
-0.60206	DROUGHT AT
-0.60206	DROUGHT SA
-0.30103	DRY SPELL
-0.60206	DULONG BAHAGI
-0.60206	DULONG HILAGANG
-0.39794	DULOT NG
-0.69897	DULOT PA
-0.30103	DUMAAN DIYAN
-0.30103	DUMAGUETE THIRTY
-0.06694679	DUMAKO NAMAN	-0.409068
-0.30103	DZ DOBOL
-0.30103	DZMM NEWS
-0.30103	E SA
-0.30103	EACH CITIES
-0.4771213	EAST MONSOON	-0.1346986
-0.6532125	EAST NG
-0.9542425	EAST NORTH
-0.30103	EASTER SUNDAY
-1	EASTERLIES ANG
-1	EASTERLIES AT
-1	EASTERLIES NAKAKAAPEKTO
-1	EASTERLIES NAMAN
-1	EASTERLIES SA
-1.447158	EASTERN AH
-1.447158	EASTERN AND
-1.447158	EASTERN CENTRAL
-1.146128	EASTERN MINDANAO
-0.748188	EASTERN SAMAR
-0.748188	EASTERN SEABOARD	-0.1127043
-1.447158	EASTERN SECTION
-0.845098	EASTERN VISAYAS
-0.9542425	ECIJA KASAMA
-0.9542425	ECIJA NORTHERN
-0.9542425	ECIJA NUEVA
-0.6532125	ECIJA TARLAC
-0.30103	ECMWF NAKIKITANG
-0.30103	EEXTEND PA
-1.60206	EH KAYA
-1	EH MAGING	-0.5118834
-1.60206	EH MAS
-1.30103	EH MAY
-1.60206	EH MGA
-1.60206	EH NABALOT
-1.60206	EH NAKAKATULONG
-1.60206	EH NAPAKA
-1.60206	EH NAUWI
-1.60206	EH PATAY
-1.60206	EH POSIBLE
-1.124939	EH POSIBLENG
-1.60206	EH PUMALO
-1.60206	EH SIGURADUHIN
-1.60206	EH TWENTY
-1.60206	EH WALA
-1.60206	EH YUNG
-0.5740313	EIGHT DEGREES	1.30963
-1.176091	EIGHT IN
-1.176091	EIGHT POINT
-1.176091	EIGHT THIRTY
-1.176091	EIGHT TO
-1.176091	EIGHT TWO
-0.60206	EIGHTEEN AH
-0.60206	EIGHTEEN DEGREES
-0.39794	EIGHTY FIVE	-0.30103
-0.69897	EIGHTY KILOMETERS
-0.30103	EL NIÑO
-0.7781513	ELEVEN DEGREES
-0.7781513	ELEVEN IN
-0.7781513	ELEVEN POINT
-0.9542425	END NATIN
-0.1760913	END OF	-0.200225
-0.30103	ENERGY WHICH
-0.90309	EPEKTO MANG
-0.90309	EPEKTO NG
-0.90309	EPEKTO NUNG
-0.90309	EPEKTO PO
-0.30103	ESCOLIAR NAG
-0.30103	ESTAREJA NG
-0.30103	ETO PONG
-0.30103	EUROPEAN CENTER
-0.60206	EVACUATE EVACUATE
-0.60206	EVACUATE HO
-0.30103	EVENING TODAY
-0.1760913	EXCEPT FOR	-0.4259687
-0.1760913	EXTENSION NG
-0.30103	EXTREME NORTHERN
-0.30103	FACEBOOK ACCOUNT
-1.477121	FACTOR </s>
-1.176091	FACTOR AT
-1.176091	FACTOR DITO	-0.09593298
-0.7781513	FACTOR DIYAN	-0.2088151
-1.477121	FACTOR MGA
-1.477121	FACTOR NATIN
-0.5740313	FACTOR SA	-0.1403045
-1.176091	FACTOR THIRTY
-0.09691001	FAIR WEATHER	-0.1276446
-0.30103	FAIRWEATHER ANG
-0.30103	FAR EH
-0.30103	FEBRUARY PA
-0.60206	FIFTEEN HANGGANG	-0.2532572
-1.079181	FIFTEEN IN
-0.7781513	FIFTEEN KILOMETERS
-0.7781513	FIFTEEN TO	-0.3802113
-0.3679768	FIFTY FIVE	-0.4259687
-0.544068	FIFTY KILOMETERS	-0.2029634
-1.70757	FIVE AM
-1.40654	FIVE DEGREES	1.531479
-0.8044802	FIVE HANGGANG	-0.174076
-1.70757	FIVE HUNDRED
-0.4771213	FIVE KILOMETERS	0.05509754
-1.40654	FIVE PM	0
-1.70757	FIVE POINT
-1.40654	FIVE THIRTY
-0.9294189	FIVE TO	-0.2041199
-1.70757	FIVE TWENTY
-0.09691001	FLASH FLOOD
-0.90309	FLOOD AND
-0.90309	FLOOD AT
-0.90309	FLOOD O
-0.90309	FLOOD SA
-0.30103	FLOODING AT
-0.30103	FOLLOW ANG
-1.255273	FOR EACH
-1.255273	FOR LEGAZPI
-1.255273	FOR MEDIUM
-0.9542425	FOR METRO
-0.9542425	FOR PALAWAN
-1.255273	FOR THE
-1.255273	FOR TODAY
-1.255273	FOR TOMORROW
-1.361728	FORECAST NA
-1.361728	FORECAST NATIN
-0.8846066	FORECAST NG	-0.2203889
-1.361728	FORECAST NGAYON
-1.361728	FORECAST NGAYONG
-1.361728	FORECAST O
-1.060698	FORECAST PO
-1.361728	FORECAST RANGE
-1.361728	FORECAST TEMPERATURE
-1.361728	FORECAST TRACK
-0.30103	FORECASTER NG
-0.3679768	FORECASTING CENTER
-0.544068	FORECASTING SECTION	-0.2808266
-0.30103	FORTICH BUKIDNON
-0.5929166	FORTY DEGREES	0.8946568
-1.672098	FORTY EIGHT
-1.672098	FORTY FIVE
-1.371068	FORTY FOUR	-0.4409091
-0.7690079	FORTY ONE	-0.155866
-1.672098	FORTY SEVEN
-1.371068	FORTY SIX	-0.4436975
-1.371068	FORTY THREE
-1.371068	FORTY TO	-0.4101745
-0.8939466	FORTY TWO	-0.1904403
-1.39794	FOUR DEGREES
-0.3565473	FOUR HANGGANG	-0.4104257
-1.09691	FOUR HUNDRED
-1.09691	FOUR POINT
-0.79588	FOUR TO	-0.4771212
-0.60206	FOURTEEN AT
-0.60206	FOURTEEN IN
-0.60206	FROM EIGHTEEN
-0.60206	FROM TWO
-0.845098	FRONT ITO
-0.544068	FRONT NA
-0.845098	FRONT O
-0.1760913	GAANO KALAKAS
-1.342423	GABI </s>
-1.643453	GABI ANG
-1.041393	GABI AT
-1.643453	GABI BUKAS
-1.643453	GABI DAHIL
-1.643453	GABI HALOS
-1.166331	GABI HANGGANG	-0.5691788
-1.643453	GABI HULING
-1.643453	GABI KAUGNAY
-1.643453	GABI MAKIKITA
-1.643453	GABI MGA
-1.643453	GABI O
-1.643453	GABI PO
-1.643453	GABI POSIBLE
-1.166331	GABI SA	-0.2151223
-1.643453	GABI TINAAS
-1.643453	GABI TULAD
-1.643453	GABI WALA
-0.30103	GAIN SIYA
-0.05799195	GALE WARNING	-0.08715017
-0.30103	GALING SA
-0.1249387	GANAP NA	-0.2196934
-0.60206	GANITONG KLASENG
-0.60206	GANITONG MALALAMIG
-0.30103	GANUN YUNG
-0.30103	GANUNG KALAKAS
-0.30103	GANYAN ANG
-0.30103	GANYANG KAALINSANGAN
-0.30103	GAYA NA
-0.30103	GAYUNDIN SA
-0.9542425	GENERAL FAIR
-0.9542425	GENERAL FAIRWEATHER
-0.9542425	GENERAL NAKAR
-0.6532125	GENERAL SANTOS
-0.1760913	GENERALLY FAIR	0.2218487
-0.30103	GEOHAZARD MAP
-0.30103	GINAGANAP ANG
-0.30103	GINAGAWA DIYAN
-0.30103	GINOONG BENISON
-0.09691001	GITNA AT	-0.1432802
-0.30103	GIWAN EASTERN
-0.30103	GLAIZA ESCOLIAR
-0.4057654	GMA NEWS	-0.6268836
-0.9700368	GMA RESIDENT	0
-0.4057654	GMA WEATHER	-0.9661417
-0.4771213	GOOD MORNING
-0.4771213	GOOD NEWS	-0.4227636
-0.1760913	GOV DOT	-0.3869447
-0.30103	GREEN NA
-0.1249387	GROUP OF	-0.5698753
-0.30103	GROUPS OF
-0.09691001	GUARD NA	-0.6946486
-0.60206	GUMAGAMIT NG
-0.60206	GUMAGAMIT PO
-0.30103	GUMAMIT NG
-0.69897	GUSTINESS NA
-0.39794	GUSTINESS O
-1	HA ANG
-1	HA BAGYO
-1	HA MGA
-1	HA MINDANAO
-1	HA TAMA
-1.021189	HABAGAT </s>
-1.021189	HABAGAT ANG
-1.322219	HABAGAT ASAHAN
-1.322219	HABAGAT DAHIL
-1.322219	HABAGAT JESSICA
-1.322219	HABAGAT NA
-1.322219	HABAGAT NATIN
-1.021189	HABAGAT SA
-1.322219	HABAGAT WELL
-1.531479	HABANG AY
-1.054358	HABANG FORTY
-1.531479	HABANG IKATLO
-1.531479	HABANG LUMALABAS
-1.531479	HABANG MAY
-1.230449	HABANG NASA
-1.531479	HABANG PAALIS
-1.531479	HABANG PATULOY
-0.6283889	HABANG SA	-0.1284178
-1.531479	HABANG SIGNAL
-1.531479	HABANG SUGATAN
-1.531479	HABANG THIRTY
-0.30103	HAHATAKIN O
-0.845098	HAILSTORM KANINANG
-0.845098	HAILSTORM KAYA
-0.544068	HAILSTORM O
-0.5835766	HALOS BUONG	-0.2367891
-1.060698	HALOS HINDI
-1.361728	HALOS NAG
-1.361728	HALOS NANDYAN
-1.060698	HALOS WALA
-0.6627578	HALOS WALANG	-0.1918855
-0.7781513	HAMOG ANG
-0.7781513	HAMOG KAILANGAN
-0.7781513	HAMOG PERO
-1.982271	HANGGANG ALAS
-1.137173	HANGGANG BUKAS	-0.001619495
-1.982271	HANGGANG DITO
-1.982271	HANGGANG END
-1.982271	HANGGANG FORTY
-1.982271	HANGGANG KAILAN
-1.982271	HANGGANG LANAO
-1.982271	HANGGANG MALALAKAS
-1.982271	HANGGANG MATITINDING
-1.982271	HANGGANG MID
-1.982271	HANGGANG MINDANAO
-1.982271	HANGGANG ONE
-1.982271	HANGGANG PALAWAN
-0.2579954	HANGGANG SA	-0.4913587
-1.982271	HANGGANG SIXTY
-1.283301	HANGGANG THIRTY	-0.1836444
-1.982271	HANGGANG UMAGA
-1.30103	HANGIN AH
-1.30103	HANGIN AMIHAN
-1.30103	HANGIN GALING
-1.30103	HANGIN ISANG
-1.30103	HANGIN NA
-1.30103	HANGIN NAMAN
-1.30103	HANGIN NASA
-1.30103	HANGIN NYAN
-1.30103	HANGIN UMAABOT
-1.30103	HANGIN WALANG
-1.230449	HANGING AABOT
-0.5314789	HANGING AMIHAN
-0.9294189	HANGING HABAGAT
-1.230449	HANGING HANGGANG
-1.230449	HANGING ITONG
-1.230449	HANGING UMAABOT
-1.944483	HAPON ANG
-0.7983546	HAPON AT	-0.22754
-1.944483	HAPON AY
-1.944483	HAPON DALAWANG
-1.643453	HAPON DIN
-1.643453	HAPON DIYAN	0.09221489
-1.944483	HAPON GANYAN
-1.944483	HAPON HABANG
-1.944483	HAPON HALOS
-1.944483	HAPON HANGGANG
-1.944483	HAPON KAYA
-1.944483	HAPON MAGHAPON
-1.944483	HAPON MAKIKITA
-1.342423	HAPON MAY	-0.279651
-1.944483	HAPON MERON
-1.643453	HAPON MGA	-0.4086998
-1.944483	HAPON NAKAPALOOB
-1.944483	HAPON NAMAN
-1.944483	HAPON NGAYONG
-1.467361	HAPON O	-0.5894709
-1.467361	HAPON PERO
-1.944483	HAPON POSIBLE
-1.342423	HAPON SA	-0.1389495
-1.944483	HAPON SABADO
-1.944483	HAPON SAMANTALANG
-1.944483	HAPON TATLONG
-1.944483	HAPON UMABOT
-1.245513	HAPON YAN
-1.944483	HAPON YUNG
-0.30103	HAPONG MAULAN
-0.30103	HAPPY WEEKEND
-0.30103	HATAKIN ANG
-0.30103	HAVE TWENTY
-0.30103	HEADLIGHT NG
-0.4771213	HEAT INDEX
-0.6532125	HEAT STRESS
-0.9542425	HEAT STROKE
-0.60206	HEAVY RAINFALL
-0.60206	HEAVY RAINS
-0.30103	HIGHLY POPULATED
-0.30103	HIHIGUPIN NG
-0.30103	HIHINA ANG
-0.30103	HILAGA SI
-1.20412	HILAGANG BAHAGI
-1.20412	HILAGANG BAYBAYIN
-0.90309	HILAGANG KANLURAN	-0.3631779
-0.7269987	HILAGANG LUZON
-0.90309	HILAGANG SILANGAN
-1.20412	HILAGANG SILANGANG
-0.30103	HIMAWARI IMAGE
-0.30103	HINAHATAK NITO
-0.30103	HINATUAN SURIGAO
-1.633469	HINDI AKO
-1.633469	HINDI GAANO
-1.633469	HINDI ITO
-1.332438	HINDI KATULAD
-1.633469	HINDI MAGBABAGO
-1.633469	HINDI MARARAMDAMAN
-1.633469	HINDI NA
-1.633469	HINDI NAGPAPALAKAS
-1.156347	HINDI NAMAN	-0.2151672
-0.7883704	HINDI PA	0.04693197
-0.8553172	HINDI PO	-0.1069784
-1.633469	HINDI RIN
-1.031408	HINDI SIYA
-0.30103	HIRIT NILA
-0.30103	HISTORY TRACK
-1.146128	HO HA
-1.146128	HO MERON
-0.845098	HO MUNA	-0.2552725
-1.146128	HO NAMIN
-0.845098	HO NATIN	-0.4542584
-1.146128	HO PINAPAYAGAN
-1.531479	HOUR ANG
-0.7533277	HOUR AT	-0.04961959
-1.531479	HOUR BAHAGYANG
-1.230449	HOUR KUMIKILOS
-1.531479	HOUR LALO
-0.9294189	HOUR MALAPIT	-0.5070845
-1.531479	HOUR MAXIMUM
-1.531479	HOUR MAY
-1.531479	HOUR NA
-1.531479	HOUR PAHILAGA
-1.230449	HOUR PATUNGONG
-1.531479	HOUR TINATAYA
-0.07918125	HULI ITONG	-0.7333389
-0.69897	HULING HIRIT
-0.39794	HULING NAMATAAN	-0.39794
-0.30103	HUMAHARANG DITO
-0.30103	HUMIHINA YUNG
-0.30103	HUMIHINGA AT
-1.243038	HUNDRED EIGHTY	-0.2552725
-1.544068	HUNDRED FIFTEEN
-1.066947	HUNDRED FIFTY	-0.07572071
-1.243038	HUNDRED FIVE	-0.30103
-1.544068	HUNDRED KILOMETERS
-1.544068	HUNDRED NINE
-1.243038	HUNDRED NINETY
-1.243038	HUNDRED SIXTY	-0.30103
-1.243038	HUNDRED TEN	-0.1760913
-1.066947	HUNDRED THIRTY	-0.204358
-0.845098	HUNDRED TWENTY	-0.3459825
-0.9542425	HUWEBES AT
-0.9542425	HUWEBES HANGGANG
-0.9542425	HUWEBES NG
-0.6532125	HUWEBES SANTO	0
-0.06908092	I AM	-0.6446123
-1.531479	I FOLLOW
-1.531479	I LIKE
-0.845098	IBA HINDI
-0.845098	IBA PANG
-0.544068	IBA ZAMBALES
-0.1249387	IBA'T IBANG	0.07918123
-0.60206	IBA'T-IBANG BAHAGI
-0.60206	IBA'T-IBANG SYUDAD
-0.30103	IBABANG BAHAGI
-0.7781513	IBANG BAHAGI
-0.30103	IBANG LUGAR
-0.1249387	IBIG SABIHIN
-0.60206	IDENTIFIED NA
-0.60206	IDENTIFIED NAMAN
-0.30103	IEXPLAIN PO
-0.845098	IFUGAO AT
-0.544068	IFUGAO BENGUET
-0.845098	IFUGAO MOUNTAIN
-0.60206	IGNACIO ISA
-0.60206	IGNACIO NAG
-0.30103	IINGAT NG
-0.30103	IIRAL SA
-0.30103	IKALAWA NAMAN
-0.30103	IKALAWANG LPA
-0.30103	IKATLO AY
-0.30103	IKOCLOSE UP
-0.30103	ILALIM NA
-0.30103	ILAN LUGAR
-1.414973	ILANG ARAW
-0.3357921	ILANG BAHAGI	-0.5450517
-0.7160034	ILANG LUGAR	-0.1098501
-1.414973	ILANG MGA
-1.113943	ILANG PILING	0.2218487
-0.30103	ILIGAN MANG
-1.579784	ILOCOS CORDILLERA
-1.579784	ILOCOS ISOLATED
-1.278754	ILOCOS KASAMA
-0.8016323	ILOCOS NORTE	-0.146128
-1.579784	ILOCOS PROVINCES
-0.5006024	ILOCOS REGION	-0.04139268
-0.6766936	ILOCOS SUR	-0.02435934
-1.113943	ILOILO ANTIQUE
-1.113943	ILOILO AT
-0.8129134	ILOILO AY	-0.3954512
-1.113943	ILOILO BACOLOD
-1.113943	ILOILO CITY
-1.113943	ILOILO TWENTY
-0.60206	IMAGE AY
-0.60206	IMAGE NAUUNA
-0.30103	IMEDIA NG
-0.30103	IMPORMASYON MARAMING
-1	IN TERMS
-0.154902	IN THE	-0.510545
-0.30103	INA INAASAHAN
-1.060698	INAASAHAN ANG	-0.1440249
-1.662758	INAASAHAN AY
-1.662758	INAASAHAN BUKA
-1.662758	INAASAHAN DAHIL
-1.361728	INAASAHAN DIN	-0.4259687
-1.662758	INAASAHAN DIYAN
-1.662758	INAASAHAN ITONG
-1.662758	INAASAHAN MAWAWALA
-1.662758	INAASAHAN NA
-1.361728	INAASAHAN NATIN
-1.185637	INAASAHAN NATING
-1.662758	INAASAHAN PAPALO
-1.662758	INAASAHAN PERO
-0.9637879	INAASAHAN PO	-0.4851491
-1.662758	INAASAHAN PONG
-1.361728	INAASAHAN SA
-1.662758	INAASAHAN SIMULA
-1.491362	INAASAHANG ANG
-1.491362	INAASAHANG BUBUTI
-1.491362	INAASAHANG HIHINA
-1.491362	INAASAHANG LALABAS
-1.01424	INAASAHANG MAGIGING
-1.491362	INAASAHANG MALALAKAS
-1.491362	INAASAHANG MGA
-0.8893017	INAASAHANG TATAMA	-0.2552725
-1.491362	INAASAHANG TEMPERATURA
-1.491362	INAASAHANG TWENTY
-0.7923917	INAASAHANG ULAN
-0.7781513	INDEX HABANG
-0.7781513	INDEX MANATILING
-0.7781513	INDEX SA
-0.60206	INFANTA AT
-0.60206	INFANTA QUEZON
-0.30103	INGAT PO	-0.2845149
-0.60206	INGAT SA	-0.4538132
-0.30103	INGATAN MARAMING
-1.113943	INIT ANG	-0.2197456
-1.290035	INIT AT
-1.113943	INIT DIYAN	-0.03272384
-0.2486419	INIT FACTOR	0
-1.290035	INIT KANINANG
-1.591065	INIT POSIBLE
-0.7781513	INTENSE NA
-0.7781513	INTENSE THUNDERSTORM
-0.7781513	INTENSE THUNDERSTORMS
-0.30103	INTENSITY NG
-0.30103	INTERTROPICAL CONVERGENCE
-0.60206	INYONG MGA
-0.60206	INYONG PANONOOD
-0.7781513	IS SA
-0.7781513	IS SIX
-0.7781513	IS YUNG
-1.113943	ISA KA
-0.8129134	ISA NA	-0.4717128
-1.113943	ISA PA
-1.113943	ISA PANG
-1.113943	ISA PO
-1.113943	ISA SA
-0.90309	ISABELA AT
-0.90309	ISABELA AURORA
-1.380211	ISABELA CAGAYAN
-1.380211	ISABELA DIYAN
-1.380211	ISABELA KANINANG
-1.380211	ISABELA NUEVA
-1.380211	ISABELA O
-1.380211	ISABELA QUEZON
-1.380211	ISABELA QUIRINO
-1.380211	ISABELA SOUTHERN
-1.414973	ISANG BAGONG
-1.113943	ISANG BAGYO
-1.414973	ISANG BINATILYO
-1.414973	ISANG HAILSTORM
-1.414973	ISANG ISLA
-1.414973	ISANG LOW
-1.414973	ISANG MANGINGISDA
-1.414973	ISANG NAKIKITA
-1.414973	ISANG PAMILYA
-1.414973	ISANG SUPER
-1.113943	ISANG TROPICAL	-0.39794
-1.414973	ISANG YUNG
-1	ISLA BABALIK
-1	ISLA DAAN
-1	ISLA DAGAT
-1	ISLA ITONG
-1	ISLA NA
-1.230449	ISLAND ANG
-0.9294189	ISLAND AT
-1.230449	ISLAND CAVITE
-1.230449	ISLAND LALO
-1.230449	ISLAND MISAMIS
-1.230449	ISLAND O
-1.230449	ISLAND SOUTHERN
-1.230449	ISLAND YAN
-1	ISLANDS </s>
-1	ISLANDS AT
-1	ISLANDS DAHIL
-1	ISLANDS KASAMA
-1	ISLANDS RIZAL
-0.69897	ISOLATED DIYAN
-0.39794	ISOLATED RAINSHOWERS
-0.60206	ITCZ DIYAN
-0.60206	ITCZ YUNG
-0.60206	ITINAAS DIN
-0.60206	ITINAAS NA
-1.431364	ITO ANG
-1.732394	ITO AT
-1.431364	ITO AY
-1.732394	ITO BAGO
-1.732394	ITO HALOS
-1.732394	ITO INAASAHANG
-1.732394	ITO KASING
-1.732394	ITO MALIBAN
-1.431364	ITO MAY
-1.732394	ITO MULA
-1.255273	ITO NA	-0.2175274
-1.255273	ITO NG	-0.212271
-1.431364	ITO PA
-0.9542425	ITO PO	-0.2285383
-1.431364	ITO PONG
-1.732394	ITO PURO
-1.033424	ITO SA
-1.732394	ITO SI
-0.30103	ITO'Y PANANDALIAN
-1.70757	ITONG AABOT
-1.230449	ITONG AH
-1.70757	ITONG ATING
-1.70757	ITONG BAGYONG
-1.70757	ITONG BUONG
-1.70757	ITONG DAVAO
-1.70757	ITONG HATAKIN
-1.70757	ITONG ISABELA
-1.70757	ITONG LALABAS
-1.70757	ITONG MAGING
-1.70757	ITONG MAXIMUM
-1.40654	ITONG MGA
-1.0086	ITONG NAMATAAN	-0.06279083
-1.70757	ITONG NASA
-1.70757	ITONG NATITIRANG
-1.230449	ITONG NORTHEAST	-0.07918127
-1.70757	ITONG PAPALO
-1.70757	ITONG PROBINSYA
-1.70757	ITONG SI
-1.70757	ITONG TATAWIRIN
-1.70757	ITONG TROUGH
-0.30103	JACKET SA
-0.69897	JENNY SA
-0.39794	JENNY TED
-1.531479	JESSICA ANG
-1.054358	JESSICA AT
-1.531479	JESSICA KADA
-1.531479	JESSICA KAYA
-1.054358	JESSICA KUNG	-0.1840602
-1.531479	JESSICA LAST
-1.531479	JESSICA MANG
-1.531479	JESSICA MARAMING
-1.531479	JESSICA MGA
-1.531479	JESSICA NGAYONG
-1.531479	JESSICA PAGDATING
-1.531479	JESSICA SA
-1.531479	JESSICA YAN
-1.531479	JESSICA YUN
-1.531479	JESSICA YUNG
-1.041393	KA DIYAN
-1.041393	KA KULAY
-0.7403627	KA NA
-1.041393	KA NG
-1.041393	KA PA
-0.30103	KAALINSANGAN MGA
-1	KABABAYAN ANONG
-1	KABABAYAN DOON
-1	KABABAYAN MULA
-1	KABABAYAN NA
-1	KABABAYAN PO
-0.07918125	KABABAYANG MANGINGISDA	-0.04921803
-0.30103	KABAYAN OPO
-0.1760913	KABIKULAN AT
-0.30103	KABILA NG
-0.5228788	KABILANG ANG	-0.2165717
-1	KABILANG DIYAN
-1	KABILANG NA
-1	KABILANG PO
-0.30103	KABILISAN ANG
-0.7403627	KABISAYAAN AT
-1.041393	KABISAYAAN AY
-1.041393	KABISAYAAN BUONG
-1.041393	KABISAYAAN DAHIL
-1.041393	KABISAYAAN KASAMA
-0.30103	KADA TAMA
-0.30103	KAGABI MAY
-0.60206	KAHAPON AY
-0.60206	KAHAPON YAN
-1.079181	KAHIT GAANO
-1.079181	KAHIT HINDI
-1.079181	KAHIT NANDITO
-1.079181	KAHIT PAPAANO
-1.079181	KAHIT PAPANO
-1.079181	KAHIT PO
-0.60206	KAILAN INAASAHANG
-0.60206	KAILAN NATIN
-0.30103	KAILANGAN NAMAN
-0.30103	KAKAIBANG INIT
-0.30103	KAKALIMUTAN HA
-0.1760913	KAKAUNTI YUNG
-0.7781513	KALAKAS PAG
-0.7781513	KALAKAS PERO
-0.7781513	KALAKAS YUNG
-0.30103	KALAKASAN PERO
-1.041393	KALANGITAN MALIBAN
-0.2632414	KALANGITAN NA	-0.8308935
-1.041393	KALANGITAN YUNG
-0.30103	KALAT-KALAT NA
-0.60206	KALAYAAN BABUYAN
-0.60206	KALAYAAN GROUPS
-0.7781513	KALINGA BENGUET
-0.7781513	KALINGA ILOCOS
-0.7781513	KALINGA MOUNTAIN
-0.60206	KALUPAAN AY
-0.60206	KALUPAAN PERO
-0.7781513	KAMAYNILAAN INAASAHAN
-0.7781513	KAMAYNILAAN SA
-0.7781513	KAMAYNILAAN UMAGA
-0.30103	KANG CORDILLERA
-0.60206	KANILANG MGA
-0.60206	KANILANG TEMPERATURA
-0.9542425	KANINA NGAY
-0.9542425	KANINA PO
-0.6532125	KANINA PONG
-0.9542425	KANINA SA
-0.5642715	KANINANG ALAS	-0.1840602
-0.5642715	KANINANG HAPON
-0.7403627	KANINANG UMAGA
-1.113943	KANLURAN HILAGANG
-1.113943	KANLURAN INAASAHAN
-0.8129134	KANLURAN NG
-0.6368221	KANLURAN O
-1.113943	KANLURAN SA
-0.30103	KANLURANG BAHAGI
-1.079181	KANYANG AMA
-1.079181	KANYANG BANGKA
-1.079181	KANYANG DIRECTION
-1.079181	KANYANG TAKBO
-1.079181	KANYANG TAMA
-1.079181	KANYANG TROUGH
-0.90309	KAPAG MAHINA
-0.90309	KAPAG MAY
-0.90309	KAPAG NASA
-0.90309	KAPAG SA
-0.30103	KAPAL NG
-0.60206	KAPAMILYA </s>
-0.60206	KAPAMILYA ISANG
-0.8573325	KAPUSO AH
-1.857332	KAPUSO ANG
-1.857332	KAPUSO AT
-1.857332	KAPUSO BAGAMAT
-1.857332	KAPUSO BUKAS
-1.857332	KAPUSO DAPAT
-1.556303	KAPUSO DITO	-0.09593298
-1.857332	KAPUSO HABANG
-1.380211	KAPUSO HANGGANG	-0.1889675
-1.857332	KAPUSO ITO
-1.857332	KAPUSO KAKAIBANG
-1.857332	KAPUSO KUNG
-1.857332	KAPUSO MAALINSANGAN
-1.857332	KAPUSO MABAWASAN
-1.857332	KAPUSO MAGING
-1.857332	KAPUSO MALALAKAS
-1.857332	KAPUSO MALAYO
-1.556303	KAPUSO MALIBAN	-0.3928004
-1.857332	KAPUSO MATINDING
-1.857332	KAPUSO NAGKAROON
-1.857332	KAPUSO NAITALA
-1.857332	KAPUSO NAKARARANAS
-1.857332	KAPUSO NANDYAN
-1.857332	KAPUSO NG
-1.255273	KAPUSO SA
-1.857332	KAPUSO WAG
-1.857332	KAPUSO WALANG
-1.857332	KAPUSO YAN
-1.113943	KARAGATAN DAHIL
-0.5118834	KARAGATAN DITO	-0.2861384
-1.113943	KARAGATAN DOON
-1.113943	KARAGATAN PATULOY
-1.113943	KARAGATAN YAN
-0.30103	KAROON NG
-0.7781513	KASALUKUYAN AY
-0.7781513	KASALUKUYAN NASA
-0.7781513	KASALUKUYAN UMIIRAL
-0.90309	KASAMA ANG
-1.50515	KASAMA DIYAN
-1.20412	KASAMA LAMANG
-0.3912066	KASAMA NA	-0.3801344
-0.90309	KASAMA PO	-0.2895357
-1.20412	KASAMA YANG	-0.4149733
-0.90309	KASI KAHIT
-0.90309	KASI PURO
-0.90309	KASI SA
-0.90309	KASI TSAKA
-0.60206	KASING LAKAS
-0.60206	KASING SI
-0.39794	KATAMTAMAN HANGGANG	-0.1283185
-0.69897	KATAMTAMAN NA
-0.1760913	KATAMTAMANG MGA	-0.3923094
-0.9542425	KATAMTAMANG ULAN
-0.30103	KATAWAN NG
-1	KATULAD KAPAG
-1	KATULAD NGA
-1	KATULAD NUNG
-1	KATULAD PAG
-1	KATULAD SA
-0.60206	KAUGNAY NG
-0.60206	KAUGNAY NITO
-0.30103	KAULAPANG DALA
-0.90309	KAY GMA
-0.90309	KAY PABLO
-0.90309	KAY SENDONG
-0.90309	KAY YOLANDA
-1.681241	KAYA ANG
-1.681241	KAYA AY
-1.681241	KAYA BASA
-1.681241	KAYA DAHIL
-1.681241	KAYA DAPAT
-1.380211	KAYA HABANG
-1.20412	KAYA HINDI
-1.681241	KAYA KUNG
-1.681241	KAYA LANG
-1.681241	KAYA MAALINSANGAN
-1.681241	KAYA MAGING
-1.681241	KAYA MAKAKAAPEKTO
-1.681241	KAYA MEDYO
-1.380211	KAYA MGA
-1.681241	KAYA NAGIGING
-1.681241	KAYA NAGING
-1.681241	KAYA PO
-0.9822713	KAYA SA	-0.7548432
-1.681241	KAYA YUN
-1.681241	KAYA YUNG
-0.30103	KAYA'Y THUNDERSTORMS
-1.146128	KAYAT ANG
-0.6690068	KAYAT ASAHAN	-0.5166298
-1.146128	KAYAT DOBLENG
-1.146128	KAYAT DOON
-1.146128	KAYAT KUNG
-1.146128	KAYAT SA
-0.07918125	KAYO SA	-0.0858364
-0.60206	KESA SA
-0.60206	KESA YUNG
-0.39794	KIDLAT ANG	-0.4739628
-0.69897	KIDLAT UMIIRAL
-0.1760913	KIKILOS ITO
-1.672098	KILOMETERS AWAY
-1.371068	KILOMETERS DIYAN	0.09221489
-1.672098	KILOMETERS EAST
-1.672098	KILOMETERS KANLURAN
-1.672098	KILOMETERS NORTHEAST
-0.3296752	KILOMETERS PER	0
-0.8269998	KILOMETERS SILANGAN	-0.2688453
-1.672098	KILOMETERS TIMOG
-1.371068	KILOMETERS WEST	-0.4045706
-0.60206	KILOMETRO BAWAT
-0.60206	KILOMETRO HILAGA
-0.30103	KILOS AT
-0.60206	KIM ANG
-0.60206	KIM SAAN
-0.30103	KLASENG INTENSITY
-0.30103	KLIMA YAN
-0.30103	KO PONG
-0.1760913	KONG LUGAR	-0.444121
-0.30103	KPH WALANG
-0.30103	KRITIKAL NATIN
-1.230449	KULAY ASUL
-1.230449	KULAY DILAW
-1.230449	KULAY KULAY
-1.230449	KULAY MGA
-1.230449	KULAY NA
-0.6283889	KULAY ORANGE	-0.09691
-1.230449	KULAY SABADO
-0.30103	KULOG AT
-0.90309	KUMIKILOS ANG
-0.90309	KUMIKILOS ITO
-0.90309	KUMIKILOS PAHILAGANG
-0.90309	KUMIKILOS SI
-0.7781513	KUMPARA DITO
-0.7781513	KUMPARA NGAYONG
-0.7781513	KUMPARA PO
-1.556303	KUNG BAKIT
-0.9542425	KUNG HINDI
-1.556303	KUNG IKOCLOSE
-1.556303	KUNG KAYAT
-1.556303	KUNG MALAPIT
-1.079181	KUNG MAPAPANSIN
-1.556303	KUNG MASASABAYAN
-0.9542425	KUNG MINSAN	-0.30103
-0.8573325	KUNG SAAN
-1.556303	KUNG TITIGNAN
-1.079181	KUNG TITINGNAN	0
-0.1760913	KUYA KIM
-0.04575749	LA UNION	0
-1	LABAS NA
-1	LABAS NAMAN
-0.5228788	LABAS NG	-0.212271
-1	LABAS PA
-1.230449	LAGAY AH
-1.230449	LAGAY NAMAN
-0.1512677	LAGAY NG	-0.3996854
-0.30103	LAGING I
-0.60206	LAGUNA BATANGAS
-0.60206	LAGUNA CAMARINES
-0.69897	LAHAT NARITO	-0.3521825
-1	LAHAT NG
-1	LAHAT PO
-0.69897	LAHAT WELCOME
-1.146128	LAKAS LALO
-1.146128	LAKAS LALONG
-0.447158	LAKAS NG	-0.2011954
-1.146128	LAKAS NIYA
-1.146128	LAKAS PAG
-0.60206	LALABAS ITO	-0.4522977
-0.30103	LALABAS NG	-0.1365503
-0.30103	LALAKAS BAGO
-0.30103	LALANDFALL ANG
-0.845098	LALAWIGAN NG
-0.845098	LALAWIGAN PATI
-0.544068	LALAWIGAN PO	-0.4416834
-1.462398	LALO DIYAN
-0.1836444	LALO NA	-0.251726
-1.161368	LALO PANG
-1.462398	LALO SA
-1.462398	LALO SIYANG
-0.05115252	LALONG LALO	-0.4918445
-1.447158	LAMANG AH
-1.447158	LAMANG ANG
-1.447158	LAMANG BIKOL
-1.447158	LAMANG FIVE
-1.146128	LAMANG MGA
-1.447158	LAMANG NG
-0.6690068	LAMANG SA	-0.1315939
-1.447158	LAMANG SAMANTALANG
-1.447158	LAMANG SIYA
-1.447158	LAMANG THREE
-1.447158	LAMANG YANG
-0.30103	LANAO DEL
-0.30103	LAND MASS
-0.7781513	LANDFALL ANG
-0.7781513	LANDFALL AT
-0.7781513	LANDFALL SA
-0.30103	LANDMASS NG
-1.278754	LANDSLIDE AREA
-1.278754	LANDSLIDE AT
-1.278754	LANDSLIDE EH
-1.278754	LANDSLIDE KAHIT
-1.278754	LANDSLIDE KASAMA
-1.278754	LANDSLIDE NA
-1.278754	LANDSLIDE PA
-0.9777236	LANDSLIDE PRONE
-1.278754	LANDSLIDE SAMANTALANG
-1.255273	LANG DITO
-1.255273	LANG DIYAN
-1.255273	LANG DOBLE
-1.255273	LANG HO
-1.255273	LANG MAKARARANAS
-1.255273	LANG MAS
-1.255273	LANG SA
-1.255273	LANG YAN
-1.255273	LANG YUNG
-0.30103	LAOAG CITY
-0.60206	LAPU CITY
-0.60206	LAPU LAPU
-0.60206	LAST QUARTER
-0.60206	LAST WEEK
-0.30103	LATE EVENING
-0.1856366	LATEST MULA	-0.408832
-0.8846066	LATEST SA	-0.5989339
-1.060698	LATEST UPDATE
-0.30103	LAYAG YUNG
-0.60206	LAYO LAMANG
-0.60206	LAYO NA
-1.176091	LAYONG DALAWANG
-1.176091	LAYONG FOUR
-0.4771213	LAYONG ONE	-0.4259687
-1.176091	LAYONG SEVEN
-0.8750613	LAYONG THREE	-0.3444957
-0.30103	LEBEL NG
-0.30103	LEGAZPI AY
-0.30103	LESS PO
-1.342423	LEYTE ANG
-1.041393	LEYTE AT
-1.342423	LEYTE DIYAN
-1.342423	LEYTE LALO
-1.342423	LEYTE MAGING
-1.342423	LEYTE MAY
-1.342423	LEYTE POSIBLENG
-1.041393	LEYTE PROVINCES
-1.342423	LEYTE SOUTHERN
-1.342423	LEYTE YUNG
-0.30103	LIGHT RAINS
-0.30103	LIKE ANG
-0.30103	LINDOL LALO
-1.414973	LINGGO AT
-1.414973	LINGGO MAG
-1.414973	LINGGO MAGTUTULOY
-1.414973	LINGGO MAKIKITA
-1.414973	LINGGO MARAMING
-1.414973	LINGGO MAY
-1.414973	LINGGO NAMAN
-0.8129134	LINGGO NG	-0.1446682
-1.113943	LINGGO PERO
-1.414973	LINGGO POSIBLE
-1.414973	LINGGO SA
-0.30103	LINYA NUNG
-0.60206	LIWAYWAY HABANG
-0.60206	LIWAYWAY NG
-0.30103	LOCALIZE THUNDERSTORM
-0.30103	LOCALIZED THUNDERSTORMS
-0.4149733	LOOB NG	-0.1945423
-1.113943	LOOB NGAYON
-0.8129134	LOOB O
-1.113943	LOOB PO
-0.09691001	LORIDIN DELA	0
-0.04139268	LOW PRESSURE	0
-1.176091	LPA AT
-1.176091	LPA AY
-1.176091	LPA DARANAS
-0.69897	LPA NA
-1.176091	LPA PERO
-0.8750613	LPA SA
-0.30103	LUBHA PONG
-1.612784	LUGAR ANG
-1.135663	LUGAR AY	-0.5894709
-1.612784	LUGAR AYON
-1.010724	LUGAR DITO	0.0801583
-1.135663	LUGAR DIYAN	-0.03272384
-1.612784	LUGAR EH
-1.010724	LUGAR NA
-1.612784	LUGAR NAMAN
-1.612784	LUGAR NG
-1.135663	LUGAR PO	-0.2136697
-0.7096938	LUGAR SA	-0.1561264
-0.90309	LULUBOG ALAS
-0.90309	LULUBOG ANG
-0.90309	LULUBOG FIVE
-0.90309	LULUBOG NAMAN
-1.041393	LUMAKAS AT
-0.7403627	LUMAKAS PA
-1.041393	LUMAKAS SI
-1.041393	LUMAKAS SIYA
-1.041393	LUMAKAS ULIT
-0.30103	LUMALABAS ITO
-0.30103	LUMALAKAS AT
-0.30103	LUMALAPIT NA
-1.041393	LUPA BABALIK
-1.041393	LUPA DADAANAN
-1.041393	LUPA KAYA
-1.041393	LUPA SA
-0.7403627	LUPA SAMANTALA
-2.123852	LUZON AH
-2.123852	LUZON AND
-2.123852	LUZON APEKTADO
-2.123852	LUZON ASAHAN
-1.082459	LUZON AT	-0.0415692
-2.123852	LUZON AY
-1.822822	LUZON BUKAS
-2.123852	LUZON BUONG
-1.822822	LUZON CALABARZON	-0.3679768
-2.123852	LUZON CENTRAL
-2.123852	LUZON DITO
-1.822822	LUZON EASTERN	-0.3916911
-2.123852	LUZON EH
-1.822822	LUZON EXCEPT	0
-2.123852	LUZON GAYA
-2.123852	LUZON HANGGANG
-2.123852	LUZON INAASAHAN
-2.123852	LUZON ITO
-1.521792	LUZON KABILANG	0.008773913
-1.424882	LUZON KASAMA	0.02802875
-1.822822	LUZON KAYA
-2.123852	LUZON KAYAT
-2.123852	LUZON LALO
-2.123852	LUZON LALONG
-2.123852	LUZON MAAYOS
-1.822822	LUZON MABABA	-0.3606157
-1.822822	LUZON MAGHAPONG
-1.822822	LUZON MAGIGING
-1.822822	LUZON MAGING
-2.123852	LUZON MAKIKITA
-2.123852	LUZON MAULAN
-2.123852	LUZON METRO
-2.123852	LUZON MULA
-2.123852	LUZON NA
-2.123852	LUZON NAG
-2.123852	LUZON NAMAN
-2.123852	LUZON NAMATAAN
-2.123852	LUZON NGAYONG
-1.822822	LUZON O
-2.123852	LUZON PAGDATING
-2.123852	LUZON PAGSASALUBONG
-2.123852	LUZON PATI
-2.123852	LUZON PO
-2.123852	LUZON SA
-1.822822	LUZON SAMANTALANG
-2.123852	LUZON SIYA
-2.123852	LUZON SO
-2.123852	LUZON TED
-2.123852	LUZON VISAYAS
-2.123852	LUZON WHICH
-2.123852	LUZON YAN
-1.822822	LUZON YUNG
-0.30103	MA MAINTAIN
-0.1760913	MAAARI PO
-0.7403627	MAALINSANGAN DITO	-0.09593298
-1.041393	MAALINSANGAN PA
-1.041393	MAALINSANGAN PANAHON
-1.041393	MAALINSANGAN PERO
-1.041393	MAALINSANGAN SA
-0.30103	MAALINSANGANG PANAHON
-0.30103	MAALIWALAS NA
-0.07918125	MAALON HANGGANG	-0.4293485
-0.30103	MAAPEKTUHAN NG
-0.30103	MAARAW WALA
-0.7781513	MAARI PO
-0.7781513	MAARI PONG
-0.7781513	MAARI RIN
-0.544068	MAAYOS ANG	-0.4729048
-0.845098	MAAYOS NAMAN
-0.845098	MAAYOS PONG
-0.6283889	MABABA ANG	-0.2957529
-1.230449	MABABA LAMANG
-1.230449	MABABA NAMAN
-1.230449	MABABA NO
-1.230449	MABABA PA
-1.230449	MABABA RIN
-1.230449	MABABA YUNG
-0.7781513	MABABANG BAHAGI
-0.7781513	MABABANG PARTE
-0.7781513	MABABANG TEMPERATURA
-0.60206	MABAWASAN ANG
-0.60206	MABAWASAN YUNG
-0.30103	MABILIS NA
-0.30103	MADALAS TUMATAMA
-0.09691001	MADALING ARAW
-0.60206	MADRE MOUNTAIN
-0.60206	MADRE YUNG
-1.361728	MAG AALAS
-1.361728	MAG AH
-1.361728	MAG GUMAGAMIT
-1.361728	MAG HAPONG
-0.7596679	MAG INGAT	0.1249387
-1.361728	MAG KAROON
-1.361728	MAG LALANDFALL
-0.8846066	MAG LANDFALL
-1.361728	MAG LAYAG
-0.30103	MAGAGANAP SAMANTALA
-0.60206	MAGANDA ANG
-0.60206	MAGANDA NAMAN
-0.5118834	MAGANDANG ARAW	-0.6550645
-0.8129134	MAGANDANG HAPON
-1.113943	MAGANDANG PAGBATI
-0.8129134	MAGANDANG UMAGA
-0.60206	MAGBABAGO NG
-0.60206	MAGBABAGO YUNG
-0.30103	MAGBAGO ANG
-0.30103	MAGDADALA PAU
-0.30103	MAGDAMAG NA
-0.1249387	MAGDULOT NG	-0.212271
-1.255273	MAGHAPON ANG
-1.255273	MAGHAPON BUKAS
-0.9542425	MAGHAPON DIN
-1.255273	MAGHAPON MAAYOS
-1.255273	MAGHAPON MANG
-1.255273	MAGHAPON NA
-1.255273	MAGHAPON NAMANG
-0.9542425	MAGHAPON SA
-0.4259687	MAGHAPONG MAULAN	-0.1290947
-0.90309	MAGHAPONG MAULAP
-0.90309	MAGHAPONG MAY
-0.7939455	MAGIGING AGWAT	0.07918123
-1.748188	MAGIGING AH
-1.748188	MAGIGING ANO
-1.447158	MAGIGING BAGYO
-1.748188	MAGIGING ISANG
-1.748188	MAGIGING KASING
-1.447158	MAGIGING LAGAY	0.05435765
-1.146128	MAGIGING MAALON	0.07918125
-1.748188	MAGIGING MAAYOS
-1.748188	MAGIGING MAGANDA
-1.748188	MAGIGING MAULAN
-0.9700368	MAGIGING MAULAP
-1.748188	MAGIGING PINAKA
-1.146128	MAGIGING TAYA	0.06694681
-1.447158	MAGIGING TEMPERATURA
-1.271067	MAGIGING TEMPERATURE	-0.1249387
-1.60206	MAGING AGWAT
-1.30103	MAGING ANG	-0.465426
-1.30103	MAGING BAGYO
-1.60206	MAGING DIYAN
-0.455932	MAGING I	-0.3435824
-1.60206	MAGING ISANG
-1.60206	MAGING MAALINSANGAN
-1.60206	MAGING MAALON
-1.60206	MAGING MGA
-1	MAGING SA	-0.1452372
-1.60206	MAGING YUNG
-0.60206	MAGKAKAROON PO
-0.60206	MAGKAKAROON TAYO
-0.30103	MAGLALANDFALL ITO
-0.30103	MAGPAPATULOY MGA
-0.30103	MAGPAPAULAN SA
-0.03778856	MAGPLANO PARA	-0.8273693
-0.1760913	MAGTUTULOY TULOY	0
-0.30103	MAGUINDANAO HABANG
-0.30103	MAHAL NA
-0.69897	MAHIHINANG MGA	-0.2174096
-0.4771213	MAHIHINANG PAGULAN
-0.8750613	MAHIHINANG ULAN
-1.176091	MAHIHINANG YAN
-0.1962947	MAHINA HANGGANG	-0.5542872
-0.7403627	MAHINA YUNG	-0.4728634
-0.7781513	MAHINANG AMIHAN
-0.30103	MAHINANG MGA	-0.5684006
-0.90309	MAINIT NA
-0.90309	MAINIT PA
-0.90309	MAINIT PO
-0.90309	MAINIT SA
-0.30103	MAINLAND CAGAYAN
-0.30103	MAINTAIN NIYA
-0.30103	MAKAKAAPEKTO PO
-0.30103	MAKAKAASA PA
-0.30103	MAKAKAIPON NG
-0.30103	MAKAKAPAL NA
-1.146128	MAKAKARANAS ANG
-1.146128	MAKAKARANAS NA
-0.447158	MAKAKARANAS NG	-0.09956677
-1.146128	MAKAKARANAS NUNG
-1.146128	MAKAKARANAS ULI
-0.30103	MAKAPAL NA
-0.39794	MAKARANAS NG
-0.69897	MAKARANAS YAN
-0.60206	MAKARARANAS NA
-0.60206	MAKARARANAS NAMAN
-0.9542425	MAKIKITA DITO
-0.3521825	MAKIKITA NIYO
-0.9542425	MAKIKITA PO
-0.30103	MAKITA SIYA
-0.30103	MAKULIMLIM ANG
-0.30103	MALA YOLANDANG
-1.255273	MALAKAS DIN
-0.2138798	MALAKAS NA	-0.5564816
-1.255273	MALAKAS O
-1.255273	MALAKAS YUNG
-0.30103	MALAKI PO
-1.255273	MALAKING AIR
-0.2138798	MALAKING BAHAGI	0.07918122
-1.255273	MALAKING LANDMASS
-1.255273	MALAKING TSANSA
-1.20412	MALALAKAS AN
-1.20412	MALALAKAS DIN
-0.90309	MALALAKAS MGA
-0.30103	MALALAKAS NA	-0.4262374
-0.7781513	MALALAKI AY
-0.7781513	MALALAKI MALALAKING
-0.7781513	MALALAKI NAMAN
-0.544068	MALALAKING ALON	-0.2340832
-0.845098	MALALAKING BAHAGI
-0.845098	MALALAKING WEATHER
-0.30103	MALALAMIG NA
-1	MALAMIG DAW
-0.69897	MALAMIG DIN
-1	MALAMIG DOON
-0.69897	MALAMIG NA
-1.146128	MALAPIT KAYO
-0.6690068	MALAPIT NA
-1.146128	MALAPIT PO
-0.447158	MALAPIT SA	-0.3661932
-0.1760913	MALAWAK ANG
-0.845098	MALAYO ANG
-0.544068	MALAYO PA
-0.845098	MALAYO PO
-0.7533277	MALIBAN DIYAN	-0.03272384
-1.230449	MALIBAN DOON
-1.230449	MALIBAN LAMANG
-0.5314789	MALIBAN NA	-0.3592906
-0.9294189	MALIBAN SA
-0.30103	MALIIT NA
-0.20412	MALILIIT NA	-0.200883
-0.90309	MALILIIT SASAKYANG
-0.30103	MAMASYAL DIYAN
-0.60206	MAMAYA HANGGANG
-0.60206	MAMAYA SA
-0.09691001	MAMAYANG GABI	-0.1154592
-0.60206	MANATILING I
-0.60206	MANATILING NAKATUTOK
-1.113943	MANG MAULAN
-0.1139434	MANG TANI
-1	MANGINGISDA DITO
-1	MANGINGISDA HINDI
-1	MANGINGISDA NAKATAAS
-0.5228788	MANGINGISDA SAPAGKAT	0.07918123
-1.857332	MANILA </s>
-1.857332	MANILA ABRA
-1.857332	MANILA AND
-1.857332	MANILA ASAHAN
-1.255273	MANILA AT
-1.857332	MANILA AY
-1.857332	MANILA BUKAS
-1.857332	MANILA CAGAYAN
-1.857332	MANILA CALABARZON
-1.857332	MANILA DAHIL
-1.857332	MANILA HALOS
-1.556303	MANILA HANGGANG
-1.857332	MANILA HINDI
-1.556303	MANILA INAASAHAN
-1.857332	MANILA INAASAHANG
-1.857332	MANILA MAGIGING
-1.857332	MANILA MAULAP
-1.857332	MANILA MERON
-1.556303	MANILA NAKATAAS
-1.380211	MANILA NASA
-1.857332	MANILA NORTHERN
-1.857332	MANILA PAGDATING
-1.380211	MANILA PERO
-1.857332	MANILA PINAKAMALAMIG
-1.857332	MANILA POSIBLENG
-1.857332	MANILA PROBINSYA
-1.380211	MANILA SA
-1.857332	MANILA VISAYAS
-1.857332	MANILA WALANG
-1.857332	MANILA ZAMBALES
-0.30103	MANOLO FORTICH
-0.7781513	MAP JESSICA
-0.7781513	MAP MALAYO
-0.7781513	MAP NG
-0.60206	MAPAMINSALA SAMANTALA
-0.60206	MAPAMINSALA SO
-0.30103	MAPANGANIB NGAYON
-0.30103	MAPANSING MALILIIT
-0.7781513	MAPAPANSIN MO
-0.7781513	MAPAPANSIN NYO
-0.7781513	MAPAPANSIN PO
-0.30103	MARA MAS
-0.30103	MARAMDAMAN MULI
-0.30103	MARAMI YUNG
-1.20412	MARAMING AH
-1.20412	MARAMING DALANG
-0.7269987	MARAMING LUGAR	-0.1275788
-1.20412	MARAMING MGA
-1.20412	MARAMING MOISTURE
-0.7269987	MARAMING SALAMAT
-0.7781513	MARARAMDAMAN SA
-0.7781513	MARARAMDAMAN YAN
-0.7781513	MARARAMDAMAN YUNG
-0.30103	MARARAMDAMANG INIT
-0.7781513	MARARANASAN DIYAN
-0.7781513	MARARANASAN SA
-0.7781513	MARARANASAN YUNG
-0.30103	MARCH PO
-0.7781513	MARILYN </s>
-0.7781513	MARILYN ALAS
-0.7781513	MARILYN SA
-0.60206	MARINDUQUE AT
-0.60206	MARINDUQUE ROMBLON
-0.60206	MARTES ALAS
-0.60206	MARTES DAHIL
-1.146128	MAS KAKAUNTI	0
-1.447158	MAS MABABA
-1.447158	MAS MADALAS
-1.447158	MAS MALAKAS
-1.447158	MAS MAP
-1.447158	MAS MAPAMINSALA
-1.447158	MAS MARA
-1.447158	MAS MARAMI
-1.146128	MAS MARAMING
-1.447158	MAS MATAAS
-1.447158	MAS MAULAN
-1.447158	MAS NA
-1.447158	MAS POPULATED
-0.30103	MASASABAYAN SIYA
-0.30103	MASAYA MGA
-0.30103	MASBATE SA
-0.60206	MASS AT
-0.60206	MASS NA
-0.30103	MASUNGIT NA
-0.30103	MASYADONG MOISTURE
-0.90309	MATA AT
-0.4259687	MATA NG	-0.2107786
-0.90309	MATA NITO
-0.9542425	MATAAS ANG
-0.9542425	MATAAS DIN
-0.9542425	MATAAS NAMAN
-0.6532125	MATAAS NGAYON
-0.30103	MATAGAL NA
-0.30103	MATANAO DAVAO
-0.30103	MATAPOS TAMAAN
-0.30103	MATINDING INIT
-0.60206	MATITINDING BUHOS
-0.60206	MATITINDING PAGULAN
-1.414973	MAULAN BUONG
-1.414973	MAULAN DITO
-0.7160034	MAULAN DIYAN	-0.2088151
-1.414973	MAULAN DOON
-1.414973	MAULAN KUMPARA
-0.9378521	MAULAN NA	-0.5944691
-1.414973	MAULAN PANAHON
-0.7160034	MAULAN SA	-0.0858364
-0.7781513	MAULANG MAGDAMAG
-0.30103	MAULANG PANAHON
-1.431364	MAULAP ANG
-0.8293038	MAULAP AT
-1.431364	MAULAP BUKAS
-1.431364	MAULAP DIN
-0.7323937	MAULAP NA	-0.3625683
-1.431364	MAULAP NGAYONG
-1.431364	MAULAP PA
-1.431364	MAULAP PERO
-1.431364	MAULAP PO
-1.431364	MAULAP RIN
-0.30103	MAWAWALA ITO
-0.90309	MAXIMUM HEAT
-0.90309	MAXIMUM PO
-0.4259687	MAXIMUM SUSTAINED	0
-1.155715	MAY AH	-0.07060488
-2.058805	MAY AURORA
-2.359835	MAY BAGONG
-2.058805	MAY BAGUIO
-2.359835	MAY BANTA
-2.359835	MAY BICOL
-2.359835	MAY BOHOL
-2.359835	MAY BORACAY
-1.882714	MAY CAGAYAN	-0.3999553
-2.359835	MAY CAMP
-2.359835	MAY CAPIZ
-2.359835	MAY CARAGA
-2.359835	MAY CASIGURAN
-2.058805	MAY CATBALOGAN
-2.058805	MAY CEBU
-2.359835	MAY CENTRAL
-1.882714	MAY CORDILLERA	-0.537602
-2.359835	MAY COTABATO
-2.058805	MAY DAGUPAN
-2.359835	MAY DALANG
-2.359835	MAY DAVAO
-1.882714	MAY DINAGAT	0.09691
-2.359835	MAY DULONG
-2.359835	MAY DUMAAN
-2.058805	MAY EASTERN
-2.359835	MAY GENERAL
-2.359835	MAY GIWAN
-2.359835	MAY GUSTINESS
-2.359835	MAY HA
-2.359835	MAY HANGING
-2.359835	MAY HAPON
-2.058805	MAY ILOILO
-2.359835	MAY INAASAHANG
-2.359835	MAY ISABELA
-2.359835	MAY KABILISAN
-2.359835	MAY KARAGATAN
-1.757776	MAY KASAMA	-0.4191293
-2.359835	MAY KULAY
-2.359835	MAY KULOG
-2.359835	MAY LAGUNA
-1.882714	MAY LEYTE
-2.359835	MAY LUZON
-2.058805	MAY MAHIHINANG
-2.058805	MAY MAHINA	-0.03778858
-2.359835	MAY MAHINANG
-2.359835	MAY MALAKAS
-2.359835	MAY MATANAO
-1.280654	MAY MGA	-0.09127936
-2.058805	MAY MINDANAO
-2.359835	MAY MINDORO
-2.359835	MAY NAUNA
-1.757776	MAY NEGROS	0.0429282
-1.757776	MAY NORTHERN	-0.01872871
-2.359835	MAY NUEVA
-2.359835	MAY PAGULAN
-2.359835	MAY PALAWAN
-2.359835	MAY PAMINSAN
-2.359835	MAY PANANGGA
-2.359835	MAY PANAY
-2.359835	MAY PARTENG
-2.359835	MAY PUERTO
-2.359835	MAY QUEZON
-2.359835	MAY REHIYON
-2.058805	MAY SAMAR	-0.3843672
-2.359835	MAY SIGNAL
-2.058805	MAY SILANGAN
-1.882714	MAY SOUTHERN
-2.359835	MAY SOUTHWEST
-2.058805	MAY TAGAYTAY
-2.359835	MAY TAGBILARAN
-2.359835	MAY THUNDERSTORM
-1.882714	MAY TSANSA	-0.1492981
-2.359835	MAY TUGUEGARAO
-1.318443	MAY ULAN	-0.07438234
-2.359835	MAY VISAYAS
-2.058805	MAY WESTERN
-2.058805	MAY ZAMBALES	-0.3458423
-2.058805	MAY ZAMBOANGA
-0.7781513	MAYO EH
-0.7781513	MAYO PERO
-0.7781513	MAYO SA
-0.30103	MAYROON PO
-0.30103	MEDIUM RANGE
-0.60206	MEDYO MATAAS
-0.60206	MEDYO NAKAKATAKOT
-1.146128	MERON ITONG
-0.544068	MERON PO	-0.6891365
-0.544068	MERON TAYONG
-1.146128	MERON YAN
-0.30103	MERONG KANG
-0.60206	METEOROLOGIST AT
-0.60206	METEOROLOGIST NATHANIEL
-1.113943	METRAWEATHER ASAHAN
-1.113943	METRAWEATHER AY
-1.113943	METRAWEATHER BAHAGYANG
-1.113943	METRAWEATHER DAPAT
-0.8129134	METRAWEATHER NASA
-1.113943	METRAWEATHER PAPALO
-1.168792	METRO CEBU	-0.2340832
-1.770852	METRO DA
-1.168792	METRO DAVAO	-0.1171643
-1.770852	METRO HINDI
-0.1476027	METRO MANILA	0
-1.770852	METRO WEATHER
-2.469822	MGA ALON
-2.469822	MGA APEKTADO
-2.469822	MGA ARAW
-1.770852	MGA BAGYO
-2.469822	MGA BAYBAYIN
-1.867762	MGA BAYBAYING	0.07918125
-2.469822	MGA BIGLAANG
-2.469822	MGA BUBONG
-2.469822	MGA BUNDOK
-2.168792	MGA DADAANAN
-2.469822	MGA DADALHIN
-2.469822	MGA GANYANG
-2.469822	MGA GUMAGAMIT
-2.469822	MGA IDENTIFIED
-2.469822	MGA INAASAHAN
-2.168792	MGA INTENSE
-2.168792	MGA ISLA
-2.469822	MGA ISOLATED
-2.469822	MGA JACKET
-1.770852	MGA KABABAYAN
-1.770852	MGA KABABAYANG	0
-2.168792	MGA KAPAMILYA
-0.8363535	MGA KAPUSO	-0.005139637
-1.867762	MGA KARAGATAN	-0.1413291
-2.168792	MGA KULAY	-0.3606157
-2.469822	MGA LALABAS
-2.168792	MGA LALAWIGAN	-0.3309932
-2.469822	MGA LANDSLIDE
-2.469822	MGA LATEST
-2.469822	MGA LIGHT
-2.469822	MGA LOCALIZE
-2.469822	MGA LPA
-1.691671	MGA LUGAR	-0.2708776
-1.867762	MGA MAHIHINANG	-0.5228788
-2.168792	MGA MAHINANG	-0.1760913
-2.168792	MGA MALALAKAS
-2.168792	MGA MALALAKI
-2.469822	MGA MALALAKING
-2.168792	MGA MALILIIT
-2.469822	MGA MAMASYAL
-2.469822	MGA MATITINDING
-2.469822	MGA MOTORISTA
-2.469822	MGA NA
-2.469822	MGA NAAPEKTUHAN
-1.867762	MGA NABANGGIT	-0.05897786
-2.469822	MGA NAG
-2.469822	MGA NAKAMOTOR
-2.469822	MGA NAKARAANG
-2.469822	MGA NAKATIRA
-2.469822	MGA NAKIKITA
-2.469822	MGA NASABI
-2.469822	MGA NATITIRANG
-1.992701	MGA PAG	-0.5509075
-2.469822	MGA PAGALON
-1.992701	MGA PAGBAHA
-1.992701	MGA PAGKIDLAT	-0.4673614
-1.127399	MGA PAGULAN	-0.08496764
-2.469822	MGA PAPALIT
-2.168792	MGA PILING	0.2218487
-1.469822	MGA PROBINSYA	0.2284793
-2.469822	MGA PULO
-1.691671	MGA PULO-PULONG	0.04575747
-2.469822	MGA PUNO
-2.469822	MGA PUPUNTA
-1.770852	MGA REHIYON	0.3679768
-2.168792	MGA RESIDENTE
-2.469822	MGA SA
-2.469822	MGA SAKAHAN
-2.168792	MGA SUSUNOD	0.3679768
-1.770852	MGA TAGA
-2.469822	MGA TAGAPANOOD
-2.469822	MGA TAO
-2.168792	MGA THUNDERSTORM	-0.4134522
-2.469822	MGA THUNDERSTORMS
-2.469822	MGA TINATAWAG
-2.469822	MGA TUMAMANG
-2.168792	MGA ULAN
-2.469822	MGA UUWI
-2.469822	MGA WEATHER
-2.469822	MGA YAN
-0.30103	MID MARCH
-0.7781513	MIMAROPA DAHIL
-0.7781513	MIMAROPA NATITIRANG
-0.7781513	MIMAROPA WALA
-1.403692	MINDANAO ASAHAN	-0.1171134
-1.181844	MINDANAO AT
-1.880814	MINDANAO AY
-1.579784	MINDANAO AYON
-1.880814	MINDANAO BARMM
-1.579784	MINDANAO BUONG
-1.403692	MINDANAO DAHIL
-1.880814	MINDANAO DIYAN
-1.880814	MINDANAO EH
-1.880814	MINDANAO GOOD
-1.880814	MINDANAO HABANG
-1.880814	MINDANAO KAYA
-1.880814	MINDANAO LALONG
-1.579784	MINDANAO MAGHAPONG	-0.2730013
-1.880814	MINDANAO MAGIGING
-1.880814	MINDANAO MALIBAN
-1.880814	MINDANAO MGA
-1.880814	MINDANAO NA
-1.579784	MINDANAO NAMAN
-1.880814	MINDANAO NG
-1.880814	MINDANAO OK
-1.880814	MINDANAO PAGDATING
-1.880814	MINDANAO PAGKATAPOS
-1.880814	MINDANAO PAGSAPIT
-1.880814	MINDANAO PERO
-1.880814	MINDANAO PINAKA
-1.880814	MINDANAO SIGNAL
-1.403692	MINDANAO SIMULA
-1.880814	MINDANAO WALA
-1.880814	MINDANAO YAN
-1.880814	MINDANAO YANG
-1.230449	MINDORO BATAAN
-1.230449	MINDORO MARINDUQUE
-1.230449	MINDORO NA
-1.230449	MINDORO NORTHERN
-0.7533277	MINDORO ORIENTAL
-1.230449	MINDORO PAGDATING
-0.9294189	MINDORO PROVINCES
-0.30103	MINIMUM TEMPERATURE
-0.7781513	MINSAN AY	-0.4708723
